ङ -0.07465162857142855 0.1668208325396824 -0.42239884126984123 -0.05908317007936508 0.14367464706349203 0.1543037341269841 -0.01686142335714286 0.10015511746031742 0.08741156190476188 0.29381635158730174 0.14784270317460319 0.03183355317460319 -0.1407217103809523 -0.158678676984127 -0.05909613333333333 -0.027001867380952393 -0.03575511603174604 -0.0954070268253969 -0.006675679365079362 0.03416626825396824 0.13065930396825404 0.2097027492063492 0.01733778968253968 0.47824448412698417 0.27908312960317466 0.03125386825396824 -0.11026815714285713 0.06916852460317462 0.10660135714285714 0.28208379603174605 0.19796051666666672 0.2891980619047621 -0.10228492482698412 0.00962036936507937 0.05816261206349204 -0.028055391507936515 0.051362909603174564 0.08217920476190475 -0.27032165079365084 -0.09627604603174598 -0.10953031555555558 0.0024979452380952433 -0.07365974214285717 0.009082184126984128 0.0034403261904761935 -0.03048869682539682 0.010900827777777776 -0.3646412547619049 0.198832026984127 -0.1588365293650793 0.002946919841269848 0.03387288888888889 0.22015807857142844 -0.018202361111111096 -0.06333170690476189 -0.0944429713595238 -0.13047485873015877 0.22409854261904755 0.012361008476190472 0.23141885825396824 0.14720132190476193 -0.037557896825396835 0.17239051190476182 0.014739915079365078 0.010261275158730166 -0.15738797976190486 -0.03310582341269842 0.20521612222222235 -0.08263643650793649 -0.2052790865079365 0.09400208809523812 -0.08715899841269843 0.06332504991269844 0.06405912142857142 0.21280384896825394 0.32106391190476186 -0.08155283015873012 0.02715307515873017 -0.027870136682539688 0.016007617460317473 -0.15564878158730153 0.1349164384126984 -0.04612451746031747 0.20719946031746025 -0.08755199444444442 -0.10750182460317459 -0.19360216563492055 -0.03785193968253968 0.020521438095238098 0.0914378888888889 -0.012166653809523812 0.07307201595238101 0.23789967769841278 -0.03689582494444446 -0.29133603174603184 0.15039472539682536 -0.09458888809523806 0.029967827063492054 0.04559637761904763 -0.18320370714285703 0.1018672944444444 -0.1713768642857143 0.24568996825396827 -0.03520763738095238 0.1392457658730159 0.16661623733333328 -0.03465093936507937 0.048235862777777756 -0.019175805555555557 -0.03572966753968254 0.033077238888888895 -0.04784699285714285 -0.04680884523809528 -0.1524171293650794 0.1894320840595238 -0.11213787412698409 0.3565092309523811 -0.019245008730158733 -0.04527356492063493 0.2547691772222223 0.15108532301587296 -0.24757395396825396 -0.02852407698412699 -0.05530047341269838 -0.019855111190476202 -0.09436197063492056 0.27587146825396824 0.0876929165873016 -0.0418605 -0.2880974460317459 0.14489450714285712 0.04916606087301591 0.0036582436507936493 -0.07317150317460315 0.139832976984127 -0.06642302230158732 -0.2880653111111112 -0.16583700055555553 -0.09354846428571427 -0.13800173992063494 -0.06488442126984127 -0.017861209682539687 -0.20765154357142857 0.20899727674603166 0.15375064920634915 -0.027052164285714282 -0.10987501190476189 -0.06384066825396824 -0.017827855317460322 -0.1559161476190477 -0.14764194126984126 -0.025919535714285725 0.042351053730158746 0.14358187460317462 -0.014971108571428575 -0.005365640476190481 -0.18791350531746032 -0.010853728571428571 0.04143479681746033 -0.057159771349206356 -0.09508279658730158 -0.11822068412698414 0.008350194444444445 0.024154048412698404 -0.12661146063492068 -0.04662105246031748 0.06607485555555555 0.1017840722222222 -0.04243984285714285 0.08959507634920633 0.07800587142857139 0.13796368658730165 0.014646997619047617 0.054392141269841245 0.13481279761904766 0.100786476984127 -0.06604697301587299 0.00838350238095238 0.008563097619047621 0.011004413174603175 -0.05065845650793654 0.15175258095238098 -0.08706455701587303 0.07004582261904763 0.010114311904761905 0.22402405015873025 -0.04070947699999998 -0.17959756190476192 -0.14201341111111113 -0.11095536349206353 0.01673951182539683 -0.023252345238095242 -0.026164801269841265 -0.07852591484126988 0.17105707619047622 0.18181079126984126 0.17645632841269823 0.09644015634920632 -0.1835918706349206 0.25890203730158734 0.13988530714285707 0.06808800873015872 0.020183668968253965 -0.042102636984126966 0.04695717547619047 -0.19179663333333333 -0.24870800793650796 0.17901057460317457 -0.09963613174603175 0.11891869047619051 -0.18210533650793642 0.08197669761904765 0.23737605158730155 -0.07549747301587302 0.11567890396825396 -0.038232362698412715 0.1983464966666667 -0.14304378134920634 0.15984211214285715 -0.04750238888888889 -0.08707654047619048 0.06522700476190477 -0.06573187936507936 -0.08310856006349206 0.10061991111111108 -0.12825574841269843 0.07447716746031746 -0.057510274761904775 0.21788084920634918 0.12800466666666666 0.18229266992063484 -0.10075248900793647 -0.07333756666666669 0.2673885063492063 -0.01074746626984127 -0.031022776190476203 0.1384652005555555 0.06544130055555555 0.15860513174603175 0.009143968730158733 -0.05728212857142858 -0.05294933134920634 0.11635951480158725 0.025750198412698416 0.11063474285714288 -0.15628882222222223 0.10569609047619043 0.1289720061904762 -0.07102226190476191 0.07905042460317459 0.11827658714285716 0.06248327301587299 -0.040813463571428545 -0.10313979999999999 -0.06691091815873015 -0.0016538928571428566 -0.06240064444444443 0.11908871031746032 0.0733803134920635 0.16066225476190477 0.3057997380952382 -0.2347466746031745 0.07509131666666667 0.030992711746031753 0.006231042380952382 0.2116743664285715 0.09600376666666659 0.04877174841269843 0.03361565079365079 -0.2656960174603175 -0.0022903428571428514 0.04227720825396825 0.12774587539682541 0.04041567936507938 -0.19562815079365076 -0.04344394206349205 0.07771424761904763 0.21457199523809517 -0.031717230952380944 -0.05797572539682537 0.15840618253968247 0.08873216757936506 -0.0007980960317460273 -0.055429397619047624 0.04511849373015873 0.017041390476190476 -0.13221847619047616 -0.048419189682539686 0.047702970634920606 -0.011508195158730155 -0.14838823492063488 -0.08857416428571427 -0.06437669206349207 -0.08411766825396828 -0.062110673809523856 0.04734421198412697 0.03303595007936508 -0.034213369841269846 -0.030365487730158732 -0.019459098253968254
ा -0.09070851378995434 0.12323908471850314 -0.3409270727685118 -0.13925492635469724 0.10082867904193625 0.20746771359805835 0.06201714971761898 -0.042249897402932404 0.05390054618799585 0.20978240087925587 0.1201524245838609 0.07414901227645102 -0.13111537634958703 -0.10940047463935283 -0.04520181050707725 -0.04962020347106358 -0.040989595996401146 -0.07197983024615348 0.04056919452718362 0.03170341523937851 0.20258123287999877 0.16159046022669285 0.10547941640752131 0.38474303472437 0.282682934713493 0.06482875581600792 -0.07197327133395728 0.023845101577631738 0.16147556152531325 0.21481478199296739 0.11665166795968607 0.23518658641242643 -0.09813369236191455 0.009338591106831788 0.047746325457191006 -0.0024758356067205328 0.03080092079917045 0.12156556742734737 -0.151444263518844 -0.09123948147202199 -0.05364361180027706 -0.03478211926579313 -0.042846391322390154 -0.10114248861276097 -0.020195366045047312 -0.006448723697300859 0.014647961180683301 -0.20927323438315756 0.17440709800015616 -0.1063164892938515 0.04273318640160257 0.08573787306380867 0.1825582399281713 0.007036163522223791 -0.03727643423991959 -0.10499738754665275 -0.11905618310377018 0.16643319300114037 -0.03336543804371087 0.25553284388890596 0.08758249894386004 -0.050772508759156634 0.05903195136183138 -0.06141158367678486 0.06470821328126887 -0.09886847991274592 -0.06903703397121325 0.16739587383659715 0.015260869010429293 -0.09937925567891955 0.0005712182058317345 -0.07504605307435608 0.0361857599280029 0.06767678347159481 0.21570263735454986 0.2995214551387355 0.01627769394761862 -0.04790774230598232 0.1171696607133719 -0.02316959753302288 -0.1504602053465579 0.07999255720837647 0.018414395495903093 0.11090345938055639 -0.06314201279739907 -0.0741115186264898 -0.21364229731344234 -0.15675814613581066 0.016931848687516137 0.06691638946946717 -0.024204225213489937 -0.013485184800359208 0.1878388499324662 -0.014828056247433196 -0.2682866483528711 0.12257143298853529 -0.10948109526851373 0.07734890889838159 0.15277539964611586 -0.15823209867301682 0.08537721348586243 -0.1317251218738592 0.21027002879546117 -0.09269505970132016 0.1508005706473374 0.15737132191884087 0.05342902325016505 0.02979649783936 -0.034351469925066505 -0.05343860149766864 0.05950306513366691 0.035625026236988946 0.005937848953347214 -0.09406037967613423 0.15803753209875177 -0.13382915202413953 0.24657814653767698 -0.06745984480778766 -0.03293599248786917 0.11900940024706051 0.06140060411279398 -0.19922859517915614 -0.0005643198619199328 -0.019712419158404413 -0.0014038532676193525 -0.17391655434889455 0.21216862159472963 0.18130133768042334 0.01371529922575293 -0.1492923647480004 0.11639621312378452 0.006509200460201988 -0.03814720776637809 -0.03018738908907438 0.12548003717926462 -0.04440509984990503 -0.2627679849061314 -0.12057333155584456 -0.20792757610012635 0.057497511862354425 0.04823157196517229 0.009451738855639233 -0.03545675570279553 0.18457087201632305 0.10123525324642872 -0.033546632745899856 0.0066088777746640785 0.03594708375081069 -0.09646488705217905 -0.11179642563260685 -0.14554643328989983 -0.10311715083764969 0.08428240634819201 0.10083001865799371 -0.000751683363377974 0.013172048047618993 -0.031275222176680516 0.002843429382105931 -0.043313003619831085 -0.10804505899357034 0.04615707647390749 -0.1549285452911851 0.0034632568782626944 0.155208365745855 -0.09726591003547935 -0.020866689380425234 -0.038428100635709395 -0.01281072252793088 -0.005900291447160941 0.09359821245920452 -0.061043553822957806 0.12493583870873783 0.05688071041131412 0.049346479943422256 -0.022126310086676447 0.061273352498205494 -0.06101253868009243 -0.019819867930948164 0.0003471752174740454 0.07100943380728536 -0.13943514841271276 0.11764559606187996 -0.06500244104986634 0.13312409542247078 0.03442606021953323 0.15709422133487813 0.06709619543489784 -0.11309510364942542 -0.19527782182735678 -0.05485626483037278 0.06928519028658157 -0.07511247879198255 0.018078953348120142 -0.10087858504277902 0.17822820460696395 -0.023731001531616884 0.09217595119908896 0.01215269939727456 -0.09450733096205867 0.22694700710584204 0.13188696354970142 0.11783324683347472 0.07593617006339198 -0.05223179843679033 -0.08625652913070611 -0.1674955729145323 -0.1701560190216057 0.08336008246914399 -0.16208190816777135 0.06634350769624389 -0.2475617839299266 0.18560966200731582 0.1853138933542904 -0.08543448089728896 0.1079524652603385 -0.016129978440294516 0.09171307620989586 -0.11362440011161787 0.1996418815157098 -0.030498674615239738 -0.07720633051721984 0.09329023999765687 -0.08917625273659298 -0.05133985392818364 0.08800421958672422 -0.12180053554605523 -0.005593608828498329 -0.024834452345875283 0.1943812573912724 0.1302527592704975 0.11199745801403094 0.003111098101329619 -0.06228791601476163 0.13072834115308432 -0.06574088670425608 0.03600344904211444 0.18211817063167313 0.030107508451163438 0.04800409895498607 0.04393777122776112 -0.0778524500367454 -0.0732659777537347 0.004405844085498183 -0.07960051682543405 0.06887124466455619 -0.26528947901372824 0.07713998444506864 0.09812123105263544 0.03352454653371667 0.07317362535634964 -0.03415056816636106 -0.05817910977200557 -0.004284247504790837 -0.03930990150627138 0.015894922360643188 0.08537617980200524 -0.03905012707710677 0.052152159842349194 0.03793566819187899 0.17022490900594528 0.23849694017962467 -0.15439925041343744 0.07704121854234143 0.01908911101252344 0.12472143866180585 0.26611325154034876 0.07330977401670154 0.01094696987413595 0.03931071975312863 -0.3192742647358795 0.04382066803453111 0.046460987796284214 0.24008684721867557 -0.052216385328141816 -0.1796325189716435 0.023711508532743023 0.1537214415005876 0.1247879957470328 -0.023113253949962817 -0.05504459760914832 0.043789381424971595 -0.029630294615191486 0.05995740782576736 0.04093433023327731 0.012558079685073572 -0.013740601428131634 0.0042828059615395335 -0.03580051166484702 0.01639138435363492 -0.06193405201206792 -0.116859018917423 -0.08744458204605207 0.025575989538313294 -0.04971385465740174 0.028023349638172823 0.013042176642041511 0.03206742624621297 -0.014193298544339414 -0.12241171922339861 -0.0466193777412729
ज़ 0.4613043513554723 0.8747808089560761 0.10723299785629625 0.24735910282233886 0.9511450833459033 0.5964156618336527 0.10062065753986815 0.8036674789597456 0.7788919524843002 0.6516085104995464 0.06262054886991308 0.028158923400051217 0.35396404933554027 0.462667574125046 0.7006918139179552 0.08533537735813623 0.5553008211676631 0.8044007090203266 0.27371551953148454 0.11665181502139121 0.9332714880917533 0.9544538764195136 0.96856315639654 0.18175110158746444 0.6282674867941823 0.3299131840814794 0.6355146146229238 0.13599215990067792 0.1809875674663297 0.32247172541606006 0.9908103436462032 0.1909921715092865 0.01929953256397554 0.15657610097835084 0.4383470473712203 0.8054859900809299 0.06646021213241637 0.47158140535975723 0.4247385921336799 0.21348155865914964 0.07960242480901902 0.5970246336625171 0.509355724639644 0.663531201875788 0.8836578136447103 0.19761542335683724 0.20839131848181547 0.977074162147867 0.42655506535808496 0.5596504001159881 0.7678659862587186 0.5537131611146887 0.1585125412863726 0.7388253176376751 0.15969526433641912 0.12260866679004401 0.9538925498890067 0.39687429853000933 0.10156949653059788 0.8689452698183935 0.7796771178789824 0.05641346189860841 0.042741097821009655 0.08252640942684897 0.8451908871576118 0.544201726822738 0.8782780809417827 0.6326327644801624 0.010742921501910585 0.18904681872446683 0.17019334070262648 0.23811642356090357 0.7668488179264351 0.052696590582471003 0.06817618669917713 0.1379805349930786 0.4250135609965454 0.8381462448065194 0.1541496163413213 0.8393916365299178 0.744874255092591 0.3117664391584022 0.5522453221245289 0.34908590486446767 0.9157632097901578 0.05872650671735069 0.13853861526325295 0.49440564087425254 0.006306549465013411 0.17068995726668557 0.48703168643208816 0.4202438971864172 0.5611210590443189 0.3339605362247451 0.6105496910379362 0.7403522846183563 0.06735379586003354 0.42068634271106864 0.44719970488626093 0.008832522708647872 0.3927063464885463 0.08762173253518746 0.23573904960619418 0.44250068047956814 0.4783876496919478 0.9803631949234065 0.9039130693377031 0.3032579417064044 0.09521939397620538 0.029841986176947 0.48862878654447417 0.792375673871515 0.015534565048542004 0.27052852077468825 0.11319419932714159 0.9056082664580974 0.5853510742509381 0.8737218310885405 0.6332888361809818 0.40464548880316265 0.08161418082567862 0.24852162347562046 0.9046704072611741 0.8234007592756224 0.619403103720606 0.32399342746294524 0.9087841576617085 0.7389415379717501 0.036477084986567876 0.10134625767466687 0.8868161759308789 0.5672837763656203 0.9698926530145662 0.4749883672514952 0.9211506375651334 0.44892855894337036 0.15056569057996794 0.2334159767625441 0.08757967846324177 0.40894984571675685 0.7597558492940926 0.32452545657357035 0.7109860093009942 0.15312993093350324 0.6777018261466625 0.5298132742680512 0.11088256049091716 0.5707482010184468 0.30725662298012435 0.8717453813151744 0.9529739892634883 0.6192374799208451 0.466796449311666 0.8301675883809279 0.5624199454070943 0.04247819694381827 0.8680101163861995 0.712467208091563 0.3781454824885033 0.8107955277904025 0.7506319753678578 0.7073633857230488 0.7856359540019685 0.40076989463872115 0.9023476417242752 0.9838459521462972 0.11828959996329091 0.7911373164669597 0.13039706088473235 0.9375382221880276 0.035819561420750046 0.1121145670787057 0.4437648926772222 0.18967949857810928 0.7698987195912255 0.4509879354159062 0.32996923425870683 0.7268176180030437 0.6463719114987112 0.31670073652157593 0.5462542990102213 0.1692229528539715 0.2280333012015372 0.7871809419233571 0.8750543269399621 0.3682829668103683 0.38492906635398105 0.5991467152135133 0.34602228148894143 0.17547631071666647 0.6821212346504804 0.8250652605356068 0.36034331625513805 0.5673845518847193 0.15586822557364044 0.6507768840404273 0.8079561651732886 0.298798311344576 0.1579813435141375 0.3305742497176357 0.7045162520168388 0.6008077099814292 0.5655340114855223 0.5503344349704549 0.9204255951709888 0.4109211583596507 0.6111109045188403 0.7567337758563955 0.7785523669002218 0.5477481405531668 0.17277402928190178 0.5192375843447484 0.11913060087851401 0.51956429961561 0.42535721484157096 0.7417041950135579 0.41553933761834105 0.22887820239752488 0.9262636292723787 0.15149019467933056 0.898844365053191 0.39032501279304077 0.4849231809696082 0.43692892340516265 0.385059952772391 0.44896328525391704 0.26517792252312233 0.6546185272543671 0.8894317298280949 0.9916925049035129 0.4442387591648661 0.4429083437660234 0.9520217790784724 0.10033136317376912 0.009623189216249384 0.5555934067652271 0.9163856666298712 0.10122208533355959 0.40953974656689096 0.3261897004686637 0.11754801034038576 0.7497472334162085 0.09769512321063567 0.014138495096471138 0.5785376060575756 0.5339922125238682 0.3247440408186981 0.5983163878315918 0.808893349173417 0.1090224588805796 0.1597542386821883 0.8390110458773943 0.9897667861523 0.3770124773216763 0.3792061623350904 0.29264582481263335 0.5932193657158181 0.3971254687827488 0.4657263923881314 0.7268057204055073 0.2515994527971912 0.35500592117903496 0.8524273281076901 0.5243168701223411 0.8079801845876627 0.9821663804762073 0.4923631852384973 0.2538646900292253 0.6463114791541585 0.2090577091557625 0.21957535798965389 0.2126197772331463 0.5078253208860879 0.9921833575410259 0.9020009821477332 0.7900548536551757 0.5743894688410885 0.05602876233172738 0.3028148030154282 0.5793707525199615 0.8854535002844947 0.3985299514471682 0.24802077035097725 0.38586552995666423 0.45791004962494775 0.530721555806016 0.43525443262421126 0.03653332516617225 0.38127154595556023 0.17455865970302453 0.10337801235800903 0.36962980926462097 0.49866337285556894 0.7604074492514293 0.6697937712378111 0.6037812181832733 0.8489582818793484 0.879467324938148 0.0193879981899171 0.31356125365641685
ऐ -0.12463798840909111 0.01928508429545454 -0.24070566325000003 -0.24346304431818178 -0.004951824863636366 0.1540815554545456 0.09545625754545446 -0.14750790663636362 0.10403634675000004 0.16619933755568186 0.059666892477272714 0.1511595183568181 -0.11416237265909088 0.001316386749999999 -0.038487554840909106 0.025418953772727283 -0.1790595177954545 -0.12866946393181816 -0.00928084772727273 -0.04303912157045456 0.29566695431818163 0.21559887747727263 0.1688731307954544 0.3553524231136362 0.2961561463863634 0.042030451363636354 -0.1065369069545454 0.038483217409090886 0.17953573762272715 0.20327879363636345 -0.10114829527272723 0.24012664624090896 -0.11732115344545445 -0.059769866363636334 0.020233538863636352 0.14951092897727272 -0.13054937690909083 0.12980216045454548 -0.1138199651636363 -0.12304549703409082 -0.08198931654545452 -0.18437567913636366 0.004751208863636362 -0.13732184977272702 -0.07443368072727273 -0.005958876818181825 -0.004280441818181817 -0.2718886797045452 0.10583562341136361 -0.030873722734090923 0.12417036931818166 0.024694666522727275 0.12428874052272736 -0.018564681977272745 -0.025226870000000002 -0.04318373277272736 -0.1761840339545455 0.16347481690909105 -0.0016679518863636383 0.19156273136363625 0.044862983772727266 -0.0723431564318183 0.10252317109090915 -0.12154767049999995 -0.06389827772727277 -0.0846607085886363 -0.09215890465909085 0.2579724254545457 -0.12393676834090903 0.02137432725 -0.018773447863636362 -0.14114184454545456 0.051925889477272745 -0.0001799742045454519 0.2348059258863636 0.2257366000227274 -0.10729918250000002 -0.0069166428159090935 0.17184894115909086 -0.0915590075909091 -0.18097181945227275 0.014771432522727276 0.04427235297727273 0.12360688113636355 0.04400051803181819 -0.018877617159090924 -0.20144191431818192 -0.22913692090909085 0.10782065093181807 0.11102849772727276 -0.056940387636363644 -0.15301949909090895 0.2105372151818184 -0.034516543727272746 -0.23470816900000022 0.08960772504545461 -0.05666946527272726 0.15540739474999996 0.08034984537590915 -0.2081529131818183 0.00841784220454545 -0.08964480772727282 0.21233962204545437 -0.0707945520681818 0.09522143564999998 0.08586800788636365 0.09873213125000002 0.008920338590909087 0.05043502943181819 -0.05298468122727268 0.09927177968181818 0.06866874414772728 0.015191877795454545 -0.07135517138636374 0.022189024886363623 -0.17132678204545468 0.28477952261363637 0.027358423409090893 0.06753232136363638 0.052630097045454516 -0.06178092363636357 -0.1721699531818181 0.05981163470227269 -0.09038268936363636 0.0767803907954545 -0.17463129586363624 0.19484714284090923 0.199589977431818 0.09477548977272718 -0.08840158312659088 0.10381783999999991 0.03912846590909088 -0.03437512888636366 0.02059963659090909 0.12551237304545448 0.004410376545454537 -0.3358756423863635 -0.0887876409545455 -0.14604008704545457 0.04689096161363634 0.1285977834999999 0.1064345381818181 -0.022114328181818178 0.19328761015000023 0.031969174772727295 0.10299524795454547 0.060021464204545454 0.08570142450000005 -0.17073807475 -0.200446876272727 -0.1980466347954545 -0.1404822872954546 0.065966630909091 0.19276845534090906 -0.10505216249999996 0.07319135136363633 0.10529291713636375 0.08827213377272715 -0.039300610227272714 -0.1665933718181818 0.11165981795454545 -0.14196797613636356 -0.01491406956818182 0.08623230950000008 -0.11394173761363639 0.0925041915909092 -0.03982723888636366 0.0678428162727273 -0.007526045750000007 0.06150678479545455 -0.09936015147727272 0.14500862099999995 0.03246263234090909 0.09309109954545454 0.09608239702272735 -0.029036206136363617 -0.10213569936363627 -0.049298938045454536 0.044324303104545514 0.044735716818181843 -0.022224675909090916 0.16220846450000004 -0.04755800681818183 0.17869434318181812 0.05981591943181818 0.1778087146818182 0.07575074461363637 -0.09677706243181826 -0.1965921612045454 -0.06254362945454547 0.10146299015909084 -0.10272393259090905 0.12799185236363625 -0.09276235154545444 0.2277619008863636 -0.003905761477272725 1.2286613636365242e-05 0.027504819804545486 -0.1353512635454545 0.22064989488636397 0.2571759090681815 0.17204773604545462 0.08004898118636357 -0.14319433568181814 -0.15925911575 -0.13301840221590916 -0.029152585840909077 0.0655835344090909 -0.1383736114477273 0.06490464275681818 -0.17491156511363623 0.19088950659090895 0.3061056081818182 -0.08781369804545452 0.07368617565909093 -0.04313679921136364 0.05612913202272727 -0.051654015162045465 0.10805627013636375 -0.04605316525000001 -0.05054896665909089 0.12674637202272732 -0.11520543361363635 -0.0530078389772728 0.09493343506818182 -0.0432995088636364 0.04261465877272727 -0.11968260477272721 0.29931742179545473 0.017675615420454538 0.15987321597727272 0.17826219181818195 -0.028797202772727293 0.09660966261363622 -0.19555292002272714 -0.07726505275 0.1752230943863637 0.05744808570454539 0.0686900689090909 0.07094843334090906 -0.09106893340909085 0.04275390068181819 0.009037578477272733 -0.0425864123409091 0.05851640429545448 -0.18055480195454546 0.08987113002272727 0.03644416668181819 0.05458995727272726 0.11147639759090908 -0.1187245861136363 -0.06919254365909092 -0.06471682863636359 -0.02848957363636366 0.04690626668181819 0.09685195249999999 -0.02780282418181816 0.07439438276590905 -0.0845136996590909 0.15241133160681825 0.1266667895681819 -0.07719538347727274 0.13164251636363639 0.17624798068181827 0.1330264320454545 0.1578193012727273 0.14890057136363624 0.05367370477272731 0.13570074879545452 -0.4917001045454552 0.08168482975000012 0.020096379886363622 0.21813707068181815 0.008955528363636363 0.0345135473409091 0.11677316840909098 0.27611222522727286 0.08435877886363623 -0.13686450888636362 -0.06528776625000003 0.0017621212954545518 -0.04486470681818181 0.047707482159090854 0.03684197018181818 -0.054854174772727304 -0.04505108961363637 0.04751192211363636 0.007520054863636375 -0.02061535022727276 -0.08957674250000001 -0.19432713136363647 -0.13288718586363638 0.05458619636363638 0.009823628090909085 0.03488124079545452 0.04622986386363634 0.03998054340909085 0.11056822659090895 -0.23400218295454558 0.0392301658659091
ठ -0.034648011770334934 0.12693533310207342 -0.36094501075757607 -0.09497238813795861 0.07440720641148317 0.13797061340510333 0.04442049443141951 0.04597249984848485 0.04465525803827746 0.22673073097049462 0.1555463633094099 0.05513892228070172 -0.11092745709728866 -0.09581998913078148 -0.04922659055661882 -0.0923494403987241 -0.025968203972886753 -0.09393116838118007 0.03641591473923444 0.0545034305470494 0.13316207797448157 0.11605406063795837 0.12328771943381196 0.3896468845933017 0.2587446033253589 0.055569528205741583 -0.0704652768580542 0.019439866028708123 0.16281220907496033 0.1994737302232853 0.2085586954625201 0.19795183161084526 -0.07527073716108455 -0.027922424968181796 0.051345501598086055 0.010016128468899526 0.024194790797448237 0.17161300033492827 -0.12557818793460923 -0.10916906546251995 -0.018930442870813375 -0.02206727261562997 -0.05604980114035081 -0.12072600961722502 -0.014809195974481685 0.015801482399521543 0.04111631911483259 -0.25284897137240797 0.20079630826554998 -0.13488498343700162 0.016549503086124392 0.07984123709728862 0.18385496971291887 -0.026180928596491206 -0.08251258677033506 -0.1469871367384368 -0.15491692970494428 0.08780435629346088 -0.06143087876475283 0.21026128117224863 0.09257149274178628 -0.007329376858054224 0.09909414155661887 -0.07689948940191398 0.07012333378309413 0.01834253625199359 -0.03888009854864431 0.1533815628468902 0.017577211451355688 -0.061251277926634755 -0.016283929441786294 -0.10937285055023932 0.014836478468899563 0.14010913725996826 0.22744862416267983 0.28046502464114803 0.02293260484688996 -0.07335744299043051 0.036260658080542345 -0.06449908528309402 -0.1913717397440191 0.10718081167464134 0.027489837001594932 0.17339208464912265 -0.10249456790909103 -0.13831351689872406 -0.19239147130781506 -0.100989888501595 -0.003150367362041457 0.02832786350079752 -0.03212587564593306 0.023323659338118034 0.21889968074162688 0.0006061034322169074 -0.2958292454545452 0.15492891430622002 -0.09737074450558204 0.04161912545454545 0.12778023685805442 -0.19771983397129192 0.13860136824561414 -0.11487484836842078 0.18874290945374797 -0.08241763489633186 0.1539803548724084 0.14190378099681009 0.03131209555023919 0.07221378850159499 -0.045328157586124435 -0.06849089340510357 -0.008119703468899536 0.016377489832535903 0.03633261715311 -0.09325423397129184 0.15244760965709758 -0.11984248880382778 0.2367134970813394 -0.12867992334928244 -0.036652660027910657 0.10384769767942606 0.08130582355103662 -0.25460942491228067 -0.04035977197288675 0.004587267221690588 -0.012348240382775115 -0.15666248947368397 0.20287607160287024 0.13481458859649145 0.031982660454545446 -0.18048108798803808 0.15089400742424253 0.015115629003189815 -0.06453811940191394 0.011344850120414673 0.1509522653030304 -0.09766661181020725 -0.22012866318181806 -0.09520423016746413 -0.21893485719298214 0.019738070095693765 1.332032615630455e-05 0.000515410652312578 -0.07377909688915468 0.19835814626794276 0.07484829648405113 -0.05409450841307818 -0.0660164604795854 -0.005018544848484849 -0.1260397187799045 -0.08615252570972881 -0.1411714192583732 -0.09870564298405098 0.13003674687400274 0.09691413562838926 0.02345744908293459 -0.013944540787081317 -0.08867804807815005 0.0029536669816586955 -0.026625522584529517 -0.07094016582137161 0.0025596648245613993 -0.163827715382775 -0.019803139677830896 0.20099100710526302 -0.052659156036682565 -0.029530160558213718 -0.04273564111642744 0.006554293787878801 -0.03769863653907504 0.09814858996810205 -0.03883318040988834 0.12377192806299825 0.012806229433811805 0.00020084137958532647 0.010491883476874046 0.07204467516826156 -0.07532406340414664 -0.0002569962312599729 0.03645849570175448 0.0970966438437002 -0.10585704051834108 0.11423990507974492 -0.08158358001196173 0.10045007108692196 0.04113133976873998 0.2145394016244019 0.05681172112440199 -0.08231682110047844 -0.20549107026315772 -0.08967608656459326 0.05026975338755982 -0.0669938769457735 -0.009319643197767132 -0.12344160845295037 0.12548076251993615 -0.03271395013716109 0.06845137994417885 0.017194185063795837 -0.08566844299043067 0.297063143891547 0.14251004579106882 0.04581747605263156 0.044811725133173795 -0.061615145094098864 -0.016279032982456147 -0.1433943270055823 -0.2210597241945777 0.051319095342902736 -0.21121132024242417 0.0924343066347687 -0.30780462708931494 0.1464731342013556 0.22905425462041487 -0.08869724754385971 0.14448324976236046 -0.041455516730462445 0.15074380083811809 -0.1585662996810206 0.1949465545614036 0.0140847483173844 -0.12259202830143555 0.08389407742503992 -0.05430540082137158 -0.01065815982424243 0.015848206874003182 -0.09496693259170651 0.04260437596331738 -0.060900396626794355 0.19471401188197746 0.10124716850079737 0.1597288890614033 -0.04940979171770334 0.00260560958532695 0.17646033082137186 -0.03691380992025517 0.01934333921291864 0.11773632560606054 0.07110348593301447 0.09110920099681011 -0.012443830183413074 -0.056570567212527956 -0.14737233472089284 -0.01040808582934608 -0.12827822568580516 0.06787745757575757 -0.27008373823843723 0.09203211422328533 0.14260506492025543 -0.03759534624401917 0.060690488668261565 0.04184718166889947 -0.03224343225869206 0.022580071331738442 -0.06381801365231249 0.025756495223285505 0.05299986942583747 -0.03141424384370015 0.059655756950877256 0.06291911844497614 0.1381476343540669 0.24735633454545433 -0.190367246857257 0.0930266585885168 0.048483528566188185 0.1643168993939395 0.24576948931419432 0.053149466464114795 -0.046253615523923465 0.033492700912280696 -0.28873622603668286 0.047415419928229646 0.05231020051036676 0.27309304486443414 -0.08135400255980872 -0.22146790237958527 -0.014919719253588518 0.1427953199760765 0.15754089053429038 -0.03304690862041467 -0.06744168042663502 0.07763458591706539 -0.04360807717057412 -0.06295765619617223 0.028571724242424226 0.010553616423763944 -0.019448868014354095 -0.043153590855661846 -0.09424599886762357 0.03727802422647526 -0.0257433537990431 -0.0750252855980862 0.0016645436315789505 -0.049447611993620424 -0.01774279516347686 0.030774300797448133 0.037376607974162646 0.05490195490430625 -0.007246326283891538 -0.08694965736842086 -0.08154447271929842
ह -0.09763160812808394 0.12075925271570082 -0.363028386172053 -0.12225175451074662 0.10558274701934572 0.1889355459724298 0.0897913136568226 -0.05866541140355127 0.04613297167373842 0.21908083277384968 0.10458484293308408 0.06034135371607474 -0.099993791684766 -0.07767269821484102 -0.06958610725953264 -0.08772866183420522 -0.026848521269813096 -0.02963094427326171 0.05273932828654224 0.049946944122756944 0.20751624918532632 0.17009832228467253 0.09717690895887852 0.383817668650467 0.30360615942897184 0.03586359040897192 -0.0977124845814019 0.03536538737186914 0.18461389300121525 0.18849149588243053 0.11797138568280292 0.2316855840147658 -0.0824967456196257 0.040141625204392545 0.03192578982710278 0.003763490964859812 0.016586965984205584 0.13920398612554213 -0.11922242456006504 -0.0861035516474888 -0.06596015130822416 -0.029177735338784972 -0.03173392811747661 -0.06689025936803741 -0.030892330830585974 -0.017265691251682282 0.0254789307553084 -0.21156007804934557 0.17752897108339263 -0.11661074592355203 0.045157311361952994 0.10597254499568248 0.169167954174112 0.022307201973551467 -0.04923477412862602 -0.12937781613429933 -0.12050899789158918 0.17591536064635455 -0.06331475961971979 0.25692904412523504 0.12222512964205558 -0.020080226888224317 0.06358041093065421 -0.056869615766635746 0.060212472341289756 -0.10586754365290638 -0.07018453503285989 0.1665323864822427 -0.016690237133271058 -0.10874518949803685 -0.02652148111280355 -0.09559632835345765 0.045747840450747916 0.060236567035140104 0.16826166346815863 0.3096643619511216 0.004366508603644849 -0.05773864366392507 0.09008059960313053 -0.034324164306916 -0.1533729981304672 0.0918005636499064 0.04794773641299084 0.14561727982971942 -0.09499072063560748 -0.0796468346590658 -0.21437773954990597 -0.14715891225756997 -0.004518723664392554 0.062447498856075256 -0.04478783582343904 0.0005515221520280329 0.18249590836962593 -0.01642320909283641 -0.25433428600074776 0.1015246146312059 -0.09466897199981292 0.06282803516056089 0.15225431975383283 -0.1622978690344859 0.10112162544065409 -0.1484419685975698 0.23162788719102803 -0.0801741170982986 0.15428286692943952 0.1792386154778108 0.06923316183242967 0.04309563726028035 -0.03514404962626164 -0.0356588402032057 0.0400014452038318 0.036810324416261704 0.005826720377757035 -0.07616211773336436 0.17365332296831779 -0.1304027621172897 0.20744811940355115 -0.06166704541129907 -0.05354461290710307 0.12056720595336409 0.046393371571766456 -0.1968857906046828 0.001687879935514012 -0.005516923233457954 0.0028347583684579522 -0.1540910699388789 0.1945119035679438 0.182292071478842 0.011724868365476648 -0.1745289519442051 0.15459022868523384 0.002912813267271027 -0.04885876678616836 -0.018806941713448638 0.10228075813781305 -0.03549719521533637 -0.252487162110188 -0.1544790377552332 -0.23191057750850516 0.04225320840317759 0.058321766559720024 0.0012120188570093463 -0.08433766499663567 0.18872578478112115 0.11595371391729031 -0.03756153978598116 0.007942585625102791 0.03014577614710277 -0.0628574748328039 -0.10365206439030795 -0.136509976883551 -0.09476541749523312 0.07559510788635497 0.11604033476037375 -0.007957283035607466 0.011518119548971945 -0.048661058880374024 0.012602726387196266 -0.0043239181250466835 -0.09565966211551376 0.03897664729635522 -0.17890170949906528 -0.005124683829158888 0.16073737153130888 -0.1077138305111296 -0.01565382402803732 -0.037343659829532735 -0.0061843246435514445 -0.02255735540140188 0.0641929528118687 -0.0833416338093455 0.15243194015397238 0.052729094258504465 0.04682038876540213 -0.025051558756448624 0.05774201919878529 -0.042943706299999884 -0.017340764559869222 -0.009197493607943927 0.09165466355214968 -0.10688397341074685 0.12700897599905683 -0.05551098944204649 0.14285305855934644 0.03571833283906553 0.1467243008694388 0.056808131465046596 -0.116987689106355 -0.17571984822457903 -0.08171392428140195 0.04711352204700938 -0.07205541773177573 0.014139414167383145 -0.11522174507093362 0.1438423087636438 0.005562897077663559 0.1210847770463548 0.020505250197850405 -0.09696929827037361 0.18732789201485167 0.1476900946420571 0.10252110847422446 0.07573013487629728 -0.023804492098186827 -0.09663219034941069 -0.18073919179869075 -0.18874120802364475 0.0896998564410747 -0.1601369047547656 0.06132365267280382 -0.2583823881388788 0.20130410407392516 0.19765011671663543 -0.07116971781420561 0.12583119224242972 -0.008455073753392526 0.09264554366532742 -0.09905027906420642 0.1625685268146538 -0.061223271465149894 -0.056232660230654034 0.11645737940927989 -0.08475849802570135 -0.033263672312242955 0.06769447986374795 -0.14435034242451372 -0.02064146985308413 -0.03204098010401865 0.1911229908755142 0.12418372285962598 0.1057710553031309 -0.01408353002467566 -0.05351268330803758 0.10056983708074695 -0.05776801304532713 0.0061895152362429675 0.19060593517781357 0.043805575656168376 0.04959029541310319 0.04081089874654196 -0.06361766450635498 -0.08157501561633601 -0.0400910725067289 -0.07487471791813081 0.05858115789299978 -0.2727628132859829 0.07441189953373857 0.10406695687112154 0.05106843563271034 0.05735613941674786 -0.04081997409018693 -0.06243069005716647 -0.021904026955327154 -0.03727179234233652 0.02095709419472145 0.1101739932739065 -0.05964800438710298 0.05787680632943951 0.041206144543271046 0.1921262043239255 0.2497643623696248 -0.16353026021869133 0.07653344763626185 0.009778901346560747 0.13859558599728963 0.28861322847944 0.04641415150678513 -0.0031323197815887834 -0.000415229215747674 -0.334207021867664 0.03574912946140169 0.017805268382710158 0.23638716229672913 -0.05895128972841136 -0.1285679800968222 0.02539011543626174 0.16924783290109288 0.12563718977383168 -0.02528810072598134 -0.06634078697102802 0.019731214523177592 -0.023910782985233598 0.07680879302666371 0.030246268489317885 0.03855004628242984 -0.006836738666925208 0.035153466894859854 -0.030559958201308357 0.019203101249383167 -0.033508781690093366 -0.135816207933177 -0.07125816508289706 0.011547244348878558 -0.03597888537700949 0.03827824131659816 0.0005542294590654226 0.033855851624859754 -0.03070392110434582 -0.10413607875088231 -0.05032964366793439
औ -0.05449815437500001 0.13748252425 -0.34185054893749983 -0.15439289625000002 0.06288444000000003 0.1394075343750001 0.017198389368749997 -0.04588817750000001 0.066820562 0.14222259325000003 0.1070842698125 0.11690051893749998 -0.14237817543749995 -0.08104070375000003 -0.023638398124999994 -0.04434722874999998 -0.0733505543125 -0.05335417725 0.014157462312499994 0.038178999374999995 0.19729362542500006 0.23455435062500007 0.10384154893750001 0.31752766115000014 0.21882959093750004 0.034707276874999984 -0.023976628125000003 0.0038971043750000017 0.14994222937499996 0.23171520698749987 0.1191792625 0.1886545350625 -0.13118172374999995 0.060899972437499963 0.0641323604375 0.0329660156875 0.011199540000000004 0.13952665625 -0.11023597499999997 -0.06842712375 -0.07802086431249998 -0.10443295756249997 -0.005216985000000001 -0.11934834062500008 -0.027982924937499994 0.004217308125000001 -0.013135197499999978 -0.12660347456249998 0.205366815 -0.07057380743750004 0.07136596062499997 0.04495216812499998 0.1725020375 0.024733514125 0.0032134734999999977 -0.07389065043750002 -0.11113651724999996 0.1389418543750001 -0.04725486631249998 0.21196636062499996 0.07864382937499997 -0.032285347625 0.06517039375000001 -0.041825023125 0.04069218818750002 -0.10336662543750004 -0.084927087625 0.16010710295 -0.00845513437499999 -0.134547801875 -0.01571518125 -0.09964114312499996 0.0442876940625 0.11641211937499993 0.1839507339999999 0.27935856687499977 -0.07735358 -0.032585103250000004 0.04512079750000001 -0.034431268125000004 -0.13086371125 -0.006487261250000001 -0.0046304968750000034 0.11631801500000002 -0.03482710062499999 -0.054594655231249976 -0.24221816875000007 -0.08671323875000002 -0.008902023649999988 0.11566196250000002 -0.06689195631249997 -0.05342500143749999 0.24332795750000002 -0.06733401312500004 -0.24230210281249995 0.15425505187499994 -0.11402089624999993 0.04780335543750001 0.162065747375 -0.11498733718749998 0.11119653996875001 -0.09897045912500001 0.2444711025000001 -0.09074555825000001 0.13259446199999997 0.137095965875 0.143234818125 -0.010883345625000007 0.00845003225 -0.041179358124999975 0.09345202062499995 0.0250078764375 -0.041875978749999994 -0.123538723375 0.09806354875 -0.11947221105000005 0.234686521875 -0.075705199375 -0.030172582312499995 0.155168256875 -0.016429762343749998 -0.234355491875 -0.005224014624999992 -0.04718037938124996 -0.00938559777625 -0.168433073875 0.19464680500000003 0.1612213418750001 0.00867498855624999 -0.14764604012500007 0.13339268125000003 -0.035742701875 -0.040323698750000005 -0.05005742375000002 0.13222747810624996 -0.03025233624999999 -0.28848755000000004 -0.030073881687500015 -0.23613476406250006 -0.006875041875000001 0.05062157125000002 -0.008745381874999998 -0.011468874999999998 0.18044434293749995 0.07880685250000001 0.04470615874999999 -0.012550225625 0.011173761499999997 -0.13434272187500002 -0.06535183200000001 -0.17980677249999993 -0.08578084562500002 0.06653915375 0.05596668874999998 0.03532173687499998 0.04109156949999997 -0.025064357499999988 -0.007248504249999998 -0.042888854874999965 -0.11282375256250003 0.025667568187500007 -0.22437210937500002 0.005183001562500007 0.11655230749999998 -0.18102053625000009 0.041308577688749994 -0.011282558687499996 0.010632625437500005 -0.05520066062500002 0.09422762875 -0.12741745874999993 0.15742223606250003 -0.0051528387499999925 0.07285542862499995 0.0054425786875000005 0.07293231125 -0.05110496137499998 -0.04287578081249997 0.06731531124999997 0.05565529749999999 -0.07120677500000001 0.026582893437499994 -0.052347568437500006 0.11963679875000004 0.09709023075000006 0.15617652124999995 0.09867252431249997 -0.09930691625000003 -0.15799246000000017 -0.059563003749999975 0.0043470618750000006 -0.051085044375 0.025323562500000008 -0.12503396875 0.14933663556249996 0.039555758749999996 0.09783257156249996 -0.03419150000000001 -0.07873736249999999 0.2017126975 0.17605921887499992 0.06088199631250002 0.10551255299999995 -0.05669033243749999 -0.12190723906249996 -0.17675720062499994 -0.20888602481249996 -0.005091377500000006 -0.13030355506250002 0.05944225687500003 -0.2078582735 0.13741280125000002 0.24797739937499994 -0.036458963125 0.14749050312499995 -0.040735476874999975 0.051579596187499986 -0.12499070900000005 0.14656144493749992 -0.06008923140625001 -0.08817200031249994 0.05234507393125 -0.03591281375000001 -0.12256600487499995 0.052910972499999986 -0.09524359375000005 -0.012388615374999986 -0.02518857937500001 0.20360728875 0.105440804375 0.08432881037499998 -0.009424005624999992 -0.06924111562500002 0.10103369850000002 -0.08901104625000007 -0.030220910375000028 0.19125062875000004 0.045797130124999995 0.017244503375 0.08767508125000004 -0.08088705875000002 -0.10035207125000008 -0.040489526 -0.09479116562500002 0.102036745 -0.23815464937500003 0.1324922537500001 0.08019004750000001 -0.0007604418750000012 0.054317717500000015 -0.010603880312500006 -0.059253845812500004 -0.03975027586875003 0.005181462749999996 0.010252808750000003 0.11704046749999997 -0.0014668818750000073 0.055047011562499956 -0.03175218275000001 0.11548057874999999 0.2731797562499999 -0.13932847250000002 0.06249388500000004 -0.010632335625 0.09213048375000008 0.21425999312500008 0.08044637937499999 -0.01889800125000001 -0.07101871599999998 -0.3628886937500001 0.06259596312500001 0.035404549875 0.25852570999999996 -0.029740346812499992 -0.09587523050000002 0.03576046346874997 0.14346534812499995 0.080254635 -0.04898686818749998 -0.04553921187500001 0.022708139999999995 -0.05507198125 -0.006727976874999998 0.011147725624999997 -0.019222270000000003 -0.005329814624999994 -0.014907711250000006 -0.029197953125000016 0.012133021749999997 -0.034072274125 -0.08177716437499997 -0.08780781812499999 0.104775457125 -0.015097166187499988 -0.02178663875000001 -0.04968628000000001 0.028840564375 0.007065917562499996 -0.14278628059999995 -0.035120433125
ग -0.12146971399910815 0.11157368594817402 -0.34377612003020336 -0.1542506678533776 0.08743570174464584 0.1774100923513934 0.07764123538667006 -0.05705575902752603 0.057741514911724454 0.216836800206 0.12941550863605802 0.07103141577567317 -0.13162913759603267 -0.0785847071273337 -0.056858274973538125 -0.04967840818204279 -0.06537043875013061 -0.08192533541284312 0.04839972650167491 0.023397019112431215 0.22681655942174603 0.1692344935344575 0.10142213242895384 0.371867316194604 0.27886469954695947 0.03913621500796264 -0.04137615025638389 0.014147226614415132 0.18771731469227096 0.1786072030568371 0.09015708359849657 0.2573153577252878 -0.0557515112593357 0.023849391763927825 0.05034744316810825 0.024407648204146145 0.005397476322762196 0.12107660667850054 -0.13738256551154573 -0.0686011010993272 -0.03986122607859696 -0.03333996967599542 -0.05623047104942343 -0.07731350658470658 -0.023361342487644092 -0.005698657291803966 0.02924556538515919 -0.16828922911037955 0.17854900083027847 -0.07519764539325924 0.0823184101822486 0.10487508606692703 0.17584007460015832 0.02979050099583329 -0.050418746748283824 -0.12795293704128943 -0.12204159171352948 0.1707808500985724 -0.021680995852450504 0.2614860680676827 0.1239590329264285 -0.034257827070895204 0.04830082651120964 -0.09731822097357173 0.03754374646258909 -0.10403976855079647 -0.07588336456274015 0.19387871634472834 -0.014470673859211976 -0.09577197882591995 -0.03436418298764415 -0.08429857521938532 0.049517611993836176 0.060857476418190365 0.21725813346013792 0.30919037326112087 -0.014608158920236067 -0.052538058918080895 0.0938014670610241 -0.02077051560035694 -0.1375201655435207 0.09776490464531877 0.026028898329489375 0.09775215469851742 -0.06060780194549718 -0.06983801472316711 -0.20702990720778588 -0.14954271877828174 0.009649323416598026 0.06805553171835585 -0.029012063714126884 -0.030138281824505737 0.1654071334237365 -0.027593057643746664 -0.26798454427855606 0.11306079189249701 -0.11659325681878063 0.06940123783120541 0.15687484036237012 -0.17295096736072157 0.07391581219942311 -0.11418938115973327 0.22828861489497593 -0.08166295111264417 0.14496482300219554 0.16253451630518928 0.05261182272721028 0.041643518873352485 -0.015755923735811316 -0.031657937903692986 0.0665490596950169 0.04466960110516203 0.020650722370881423 -0.08662584722463632 0.14862217803555852 -0.13565074690128978 0.27582909677994916 -0.0701972615792833 -0.04295314088344317 0.11617207891199918 0.030460868867037232 -0.17991309565890903 0.024130528166460795 -0.015609590851681775 0.02488005153507682 -0.15186580584802406 0.20432185352272114 0.1825880550437254 0.028607612725562916 -0.16022833386593896 0.0991406623556432 -0.005251528362300959 -0.04448389974427525 -0.013441502223146664 0.10617735209816041 -0.02985389849863407 -0.2627981222782806 -0.10903984704029367 -0.21576811049395944 0.061582409043726076 0.05344852347110136 0.009989940351290524 -0.057210648155271736 0.21773799146578096 0.09283952603134267 -0.022084940605848376 0.033860556505827956 0.02865289494098712 -0.09685096307909757 -0.10511135334196167 -0.14337834053253715 -0.11278456022954361 0.11310195902539844 0.1271395322573431 0.019429103116900083 -0.013801212764442548 -0.04375603445503841 0.0195087967105573 -0.05853515521411343 -0.12330440461435978 0.04970867112596113 -0.14464981995826462 -0.02466962183119169 0.17923495413817925 -0.12686487423640824 0.00035638948936023883 -0.02327865981871207 0.038782558241763 0.01693430212687399 0.09627812264358174 -0.07221167835540235 0.15602665851066663 0.07664873103020325 0.07123080459630664 -0.0006293795991351005 0.05604954720291069 -0.046440048561799445 -0.005023924132413511 -0.0178289659651976 0.08033465206047519 -0.1312809290937323 0.12124713623977265 -0.09046578904056841 0.12178562931047512 0.055108509256390666 0.14662758187856925 0.06823740961168302 -0.11739531719412434 -0.16945693727175995 -0.08008021788381395 0.06412952940733116 -0.055742910305642705 0.031887247576194384 -0.10600051687163621 0.18271139107921475 -0.06589779169247638 0.08083978624663593 -0.008454574726180645 -0.09045145701757269 0.16719003995085155 0.1517019353966353 0.14168912015252622 0.08648637850281435 -0.05047698331253461 -0.10877291256490904 -0.1711089366052779 -0.1460577677070976 0.06801773149389063 -0.17946926095139895 0.052610552355459986 -0.270343471383168 0.22146900278851053 0.1831726719921739 -0.07293547403665554 0.10009144993294213 -0.033844599982660005 0.0832393815912269 -0.09802973447975058 0.18488895420998108 -0.016460286687719667 -0.0610255989246982 0.10477230528624475 -0.09872115172696291 -0.03912148736133993 0.09006969362847306 -0.10141569968718701 -0.013392610925164753 -0.053967260923668506 0.19894678387520584 0.09940422771238384 0.13091555882821904 0.023321883360317222 -0.020997931052306382 0.11180897680518961 -0.08617496590403628 0.027035571513255155 0.17689579303253677 0.05022004018691666 0.05682239353827578 0.019026453904722733 -0.08025755794892897 -0.03992705878919556 -0.010372717660454443 -0.07168094755059046 0.0722840301507251 -0.2392574667281024 0.09083630484841049 0.09245097938330597 0.0771843858193644 0.06866563701695506 -0.06429737434647162 -0.04222002605374808 -0.024364251917559143 -0.04104552820428345 -0.0009750908314450324 0.09642759216124382 -0.036940197378431995 0.054154448858800566 0.04345918894366422 0.1607105411032396 0.22211882011577438 -0.15086395076022785 0.10461443799546989 0.04474601943535142 0.1555319611729824 0.2758447246501235 0.08991983321210933 0.01606883408621642 0.09401670955065895 -0.36568671767229477 0.0363660103582303 0.05500142413714997 0.22183997180573936 -0.06664378859850369 -0.14681104910715287 0.02827188937088821 0.17612826294542822 0.13215138699011472 -0.04390862781950833 -0.041139130623221824 0.013348352822521895 -0.007285737149910779 0.0439323339106537 0.049838590132139184 0.03291858557921467 -0.030045056916186252 0.010270641107907713 -0.03847977414658853 -0.0023636812817819817 -0.026980929295098675 -0.11998204189710414 -0.10321853926917927 0.008244012265033018 -0.05127441813492551 0.059636451605972064 0.018738440266817594 0.017248017247391573 -0.02203076829825634 -0.12435866164270964 -0.037029762233731355
घ -0.031384402422745095 0.10199529017254905 -0.3780264167058822 -0.12316650508392174 0.04798568171523926 0.21751260282274493 0.08036265388235292 -0.04763984126274507 0.10233894383529425 0.2023004025466665 0.12425302722352953 0.08819165810980391 -0.1518705744321571 -0.10779158835294128 -0.05516096860392166 -0.1044260228580393 -0.059242612635294095 -0.08769336180392162 0.0589890721498038 0.024618946721568613 0.216480500101961 0.10936541089207842 0.16891300877647072 0.4388408669019603 0.26105486001568584 0.021288932235294135 -0.08903801250196093 0.00852618211764707 0.17316751340392192 0.14074059974901948 0.16018406224313714 0.1808278850352939 -0.09066426560000015 0.01018252402509803 0.04865864428235302 0.04608502276078428 0.026658490666666642 0.09698386421176454 -0.14006269238588245 -0.12071064989803931 -0.0326343128392157 -0.022170678123843136 -0.06843138873725492 -0.10337374837176463 -0.0013198644258823505 -0.01046798008784313 -0.0023491411827451015 -0.2673777436862742 0.23448624299607865 -0.10697303799999998 0.08154237174901957 0.08106693178039219 0.18136549114509795 0.022127130734117605 -0.05337846842823524 -0.13946696063137284 -0.12021824092549004 0.1210848859686274 -0.010238681869803931 0.19324713269803923 0.11759254195294135 -0.00699949873019608 0.08826124930980399 -0.04515852817254899 0.07098669353098047 -0.07835761796862739 -0.05407324069019607 0.16732243128627455 0.01755929941176468 -0.06622062426588239 0.02266503803921567 -0.0926656802196078 0.04671936178039215 0.09462600967058835 0.2575470609411766 0.33613966641098 0.015044061349019576 -0.029278316494117593 0.06122746967058836 -0.026624325176470582 -0.13332248489098042 0.09556688240784302 0.06059775219607848 0.16143720185882363 -0.10701184665098022 -0.14209194958431395 -0.188067807372549 -0.09379991521568631 0.0181119417647059 0.02733975601568625 0.003280337247058829 -0.005519771451764706 0.24418289088627454 -0.023012514007843092 -0.3070967452549018 0.13584177127058816 -0.10522459213333343 0.07709236708901966 0.13789942383921544 -0.1625884510823529 0.09566344296564723 -0.09368687344313711 0.18835913162117637 -0.11357747024313718 0.11801387658823527 0.11470732014117614 0.07590162197254889 0.0027397861082352915 0.013014639882352923 -0.019528090627450985 -0.005999071053333303 0.04558104309333337 0.032862706525490205 -0.09823407976549006 0.13817649352627473 -0.13532257832784325 0.1922265135294116 -0.1414868001098038 -0.020538303921568635 0.15659788606274516 0.08872073130980378 -0.22436432770431355 0.0028951660235294052 -0.02644704664313728 0.027100366601568587 -0.19523046043921558 0.2080436488470588 0.1675523934039214 0.020881609858823477 -0.16255039310588237 0.10585534151372547 -0.01068341030039214 -0.003241657294117646 0.02369256643686272 0.13771043560000007 -0.05287241275372556 -0.24413316544784297 -0.0792001315270588 -0.1681213587694117 0.01787232313458825 0.026626492211764732 -0.013556931843137266 -0.06633855224313724 0.20093130711372556 0.06456688355058814 -0.004132582164705877 0.00379746912156863 0.05291630375686273 -0.06168420555294108 -0.11739452266666671 -0.1351325202509807 -0.04221048195921567 0.07253627874509802 0.11751271227058835 0.012872272345098018 0.008422808815686274 -0.06789476956235287 0.03992524106039209 -0.08052396526274504 -0.08584698927058816 -0.02511896746666664 -0.16908461288392154 0.01553509597254902 0.17235435341176455 -0.0576803052470588 -0.027229410713725487 -0.009828724277647072 0.011807937678431376 -0.023385685913725505 0.14722151159999974 -0.03431290767058822 0.1153745209098039 0.012626808258823537 0.023446358274509808 -0.002889907285254902 0.08421412608627442 -0.05368175924862736 -0.009937275388235302 -0.0086515495372549 0.1285324063137255 -0.07427396255686255 0.08876806309019608 -0.06048238172549018 0.09717801625098048 0.06646153692549027 0.1515449749176468 0.025007040337254902 -0.11340758349019624 -0.18802911684705886 -0.10490896767058826 0.03882123120862753 -0.04708678388235296 -0.008991811607843143 -0.12113060756862733 0.14381397986666666 -0.06431808946666671 0.09761936690980394 -0.008188904996078454 -0.11041684523137248 0.28480601014901985 0.14224905247843167 0.08398834767215688 0.10370667760784319 -0.08475168512941182 -0.08019257921803923 -0.16716718686274487 -0.14059429180156852 0.03852545025725489 -0.18121782488627444 0.09582437474431374 -0.2732559016470587 0.15459267642352967 0.2580566816627451 -0.05792634691764708 0.13597504408627437 -0.03752563572549015 0.09905091312392154 -0.08403521663607834 0.14600464379843114 -0.024521113996862742 -0.07978322366274514 0.09605422392235295 -0.08274660668235286 -0.02411700054117649 0.025686129996862737 -0.042703277356862704 0.007977009772549011 -0.045627396895215715 0.21599695392941176 0.13023099237647046 0.15280211570196034 0.01573975912156861 -0.023762530980392136 0.17599870699607836 -0.09972678147843153 0.09920995790039215 0.11593021533647083 0.14097050952156887 0.07466697690980381 0.048349784031372536 -0.13131106427450978 -0.05612165613176471 -0.07592933964078444 -0.056221483498039175 0.057266111639215654 -0.2511638688705886 0.07469580610196071 0.07940204314509802 -0.0028270041411764734 0.06916092726039216 -0.04072338107450989 -0.019639831112156853 -0.02305354963137253 -0.06154312361568635 0.034729435898039236 0.08255335902745099 -0.04620750920784319 0.050747369560784336 0.100627020133333 0.15859462443921574 0.23408937218823525 -0.1078872960941177 0.0848823808156863 0.057211023725490175 0.18374364476078403 0.19556860596862696 0.10317111469803923 0.0170795729207843 0.10297521097490185 -0.37445570541176443 0.08245435537803922 0.07047034432941174 0.27251985160784326 -0.041301605513725526 -0.1529828028784314 0.04481685167058833 0.1774152485333334 0.1434547377098039 -0.03154419113725488 -0.0966569651215686 0.040043972149019676 0.0009274798901960803 -0.027740360127058838 0.01092641851764706 0.010525102925490184 -0.016723791372548973 -0.08192782616470594 -0.06894745877647057 0.03871785866666666 -0.04178724159215691 -0.08323731074509802 -0.021358722050980394 0.055559326274509865 -0.05752157967843133 0.058915242425097956 0.02742458987450983 -0.019763626258823528 0.04447628002352942 -0.08804910029019607 -0.04249213656470588
ृ -0.06980626905762308 0.08281262052821128 -0.31252647352941215 -0.10678678135054004 0.10823359570228103 0.19717510852941128 -0.01680842275510201 -0.011541111891356553 0.06432325036614657 0.21509578834333734 0.1175894178811526 0.054494289811524696 -0.16481138353541425 -0.0795127386494598 0.01621603510804319 -0.06892199239495808 -0.07554280301320539 -0.12899964142857165 -0.0020401005222088807 -0.009238297791116443 0.19950476336134476 0.16412473877551015 0.05832854254501808 0.39418904873949573 0.313388177076831 0.064772218907563 -0.1580104196578635 0.04400326875690279 0.16729907666266497 0.25344209128451334 0.20003470330732295 0.2592099296818727 -0.16911674001800706 -0.022622695948379335 0.04783970462184883 0.029501506242497012 0.07412873082004803 0.11983707124849946 -0.2365819177911168 -0.10210053746098416 0.027724538970588283 -0.03823666615006003 -0.07136024475930382 -0.10193591279771924 -0.03455044542016805 0.0286609729153662 0.004095010603241296 -0.4031433333253304 0.23167513207683108 -0.08448531032412972 0.082083066362545 0.03647839946158462 0.25704248189075607 -0.038338849564825854 -0.0164428764189676 -0.14087602453277298 -0.0724627324945979 0.1569603293577433 -0.012175710612244903 0.21780504124849942 0.011725653535414188 -0.09355924992316929 0.08855593624189664 -0.11337135825930367 0.014464045120048027 -0.03323863704681873 -0.013048098069627853 0.22477939520408155 -0.007880656308523398 -0.14452445058823515 0.035478264693877534 -0.17290969635114023 0.05747592432172872 0.1824147665864346 0.20210777711884767 0.20290862328271306 0.05050308884453774 -0.11617976260504227 0.09116634608523409 -0.0376374422316927 -0.1967945122689075 0.03263283619567828 -0.0410759786584634 0.17314139451980817 -0.0803782934021609 -0.038696255684273706 -0.16384460939375767 -0.1354371476350539 -0.008879604687875143 0.14236869941836758 -0.00550045758163265 0.007569170282112837 0.24209982063025215 -0.004903091506602633 -0.29086309387755116 0.2039880125690274 -0.11464300111644632 0.061707763729892 0.13833523462184866 -0.12060853090035996 0.119367421330132 -0.09715590179471789 0.11753810586734698 -0.18515845385354146 0.09336634854801905 0.1146980570708284 0.024470413166866715 0.015655205394958 0.014126378433373317 -0.024570196176470598 -0.009509847420768307 -0.08871450080432172 -0.044385480296518606 -0.07809554417166864 0.12624618959903938 -0.05058368383613433 0.31541905537455034 -0.00014416627250900602 -0.006996229576830744 0.13474048819927967 0.1178276870528211 -0.2186017349339734 -0.008197057561824723 -0.016547489987995195 -0.07637391218487401 -0.12728931401380567 0.23880865839135682 0.1873198600306121 -0.019581683619447763 -0.16816410799519815 0.019754276295258087 0.03307282270708276 -0.025641636128451384 0.009723308511404564 0.12304742263505418 -0.021494624009003566 -0.22261659609243717 -0.08163759320288119 -0.1695834275510202 -0.010451453031212496 0.010625144393757512 0.014483753204681885 -0.0367258022472989 0.2157403717887157 0.10387564926266493 -0.06166813807322937 -0.018402495444177665 0.0701497772514586 -0.13087514689075624 -0.16152256059123646 -0.16270995792917176 -0.012426465004801908 0.0902027886794719 0.08620918139255696 -0.04622685509003593 0.0018087438529411778 -0.03753798710684278 0.03503731990936371 -0.040886430090036015 -0.07296234295918369 0.011683505906362543 -0.09997412146458579 0.016111054291716706 0.10492507542617062 -0.11728542426170456 -0.054035996446578714 -0.01366572916686675 -0.015510181278511372 -0.06711832924369743 0.12434565807923174 -0.029274618277310878 0.08187533663805525 -0.08469147997599037 -0.07649708486794714 0.022677083127250947 0.10222256679927974 -0.08581427883133252 0.020882398997599007 0.1033759212617047 0.034918954778511396 -0.11380415924729902 0.09389485673469386 -0.09400247724969987 0.08842764873769511 0.05841682510984383 0.16059130537214886 0.0905978296758702 -0.11635056121608654 -0.17844271404561832 -0.06921030620204074 0.06302385192016814 -0.06413164494597849 -0.01854537931992795 -0.020810741104441758 0.22443460660264083 0.008939682339735895 0.10139992558403353 0.0678740396026411 -0.14933891270108046 0.2904817956362549 0.20803596273709474 0.0915450993211285 0.03479839896758706 -0.0482095197442977 -0.03023953440336136 -0.1444108019207683 -0.1031338373409365 0.1071558413085232 -0.09657888766386556 0.11801793007502996 -0.31507299374789893 0.14040383505882367 0.26791514370348146 -0.057226548379351705 0.07541479606842734 0.024021074240696254 0.10123570924369772 -0.1847871654993996 0.21374949865846335 0.02560871224489794 -0.14131662198139283 0.028345469669867968 -0.07634906740396172 -0.07016245221368539 0.06078207709483798 -0.051181294718667426 -0.04893068601860739 -0.05142887308103243 0.19137120897899124 0.14636490258703472 0.11196252485834311 -0.015803162974189662 -0.13971989477190866 0.18887464938775514 -0.03209150888955583 0.008052420798199253 0.19345287884393736 0.023281568808823535 0.12410279365846333 0.07601259689615847 -0.08685505783313316 -0.09248575336134464 0.03587309779711874 -0.060269261908163375 0.069852613547419 -0.2143996859849943 0.11031127246098449 0.07046126231692672 -0.020484880408163274 0.09420455420048027 -0.040818694387154825 0.037725930388355394 -0.037777271728691476 -0.09036670771308518 0.04038833518727493 0.03567787522569029 0.04599296095678278 0.06234345123049226 0.06472080021608631 0.13016141471188475 0.22018738714825953 -0.15748053751680663 0.023687568241296534 0.08152108764201686 0.06837665800360142 0.22315073710084055 0.11697746510444168 0.0101210506152461 -0.0013188582533013183 -0.292296802358943 0.03792933009003597 0.012781341230492217 0.2874373478151259 0.03341750217286915 -0.21516688408163293 -0.04043212283913577 0.09075360837334923 0.17491077160264107 -0.009990816335594229 -0.0694097762280911 0.1691989892737091 0.010810441772569028 -0.06726291161464577 0.050543127376950735 -0.019393463431572666 0.022246910620047997 -0.1376827016026413 -0.05175667089015607 0.035560550151260556 -0.05003082012845136 -0.10894979821128474 -0.045686873259303776 0.04380192318127245 -0.08113654259303718 -0.021959524759903978 -0.01402488528091237 0.035779895756302554 0.01703684483253302 -0.07295711624189681 0.003640203201680656
फ़ 0.42678033177810815 0.37849751470960324 0.08056354765721607 0.05215271053922976 0.24525411603463199 0.923783448416607 0.2251560733778355 0.2679900078082622 0.6985443377788267 0.06716746999575252 0.12314048137939271 0.9841319248624882 0.8800595544781352 0.1420522062347378 0.17777809546099788 0.6230953548812826 0.6631600704248773 0.9696261608070239 0.8744465134038439 0.4689051137780934 0.6478532237744411 0.10766617712679405 0.2640343310318639 0.679976031844011 0.2729766556595117 0.7944214509033674 0.8252970232955468 0.46643375168096246 0.380660130900245 0.031740095801882195 0.06630728461244206 0.9022322232239653 0.5264712252504097 0.46527732436992086 0.14031360248232094 0.06974925109239849 0.14765695098884624 0.43014290072528294 0.7350454308587607 0.40529547048796755 0.4420661918394676 0.35781509114694776 0.6351406353447053 0.8157924931206865 0.5287976375490964 0.13652231976806173 0.49569528147702624 0.8649775118553216 0.19332270838669052 0.9359183349894 0.8167651888003186 0.2333668898353286 0.8026380142845363 0.17537483935162979 0.7650496700886134 0.7610379567977479 0.3214640202827356 0.5184929235627334 0.44231286147321736 0.7830986406810582 0.8564123715279606 0.4876202182765045 0.49153848925348875 0.13187307218325417 0.8598710260326461 0.9289085626849027 0.30878276487057355 0.8834225225352623 0.7214617580360525 0.018103680639824815 0.9502983468553995 0.6988878233452441 0.5718954449358927 0.5910185185694555 0.5218980126001945 0.21769956730974538 0.1699749757479787 0.636333151808161 0.8256031714210157 0.8564939321165009 0.5258309241062697 0.16600729219529065 0.5358504605334209 0.0011116056785974715 0.814187043885424 0.14454693229885274 0.12856665493954955 0.9472798445785792 0.46869781840519253 0.559679437737248 0.25685755291545953 0.1512760373045171 0.5479922291149365 0.19875392383091417 0.7749481287644593 0.14630200905501112 0.6059105243603765 0.060287003151658136 0.10239753358814851 0.8330663369282523 0.9316445168438131 0.48163732900667233 0.5717439855874854 0.4103285415643776 0.7797829799512122 0.8425383177066711 0.8949575000293205 0.17200687109069224 0.7562345724525957 0.898087968467179 0.021889265206690656 0.7353570000818304 0.06701529627124647 0.311149035694288 0.6299877120394715 0.34961707725427027 0.7076577763446784 0.3956478674610844 0.30762718500663155 0.7037106082050515 0.35259309974948827 0.3480205851906042 0.37039153440087835 0.1879426325490302 0.10866602629400801 0.3524142199889231 0.7084141382917115 0.5550319943548506 0.4934150198350462 0.5474675547330101 0.904965303154226 0.7781199688955525 0.5562443192753643 0.7303813449328297 0.9228021943227732 0.9292046324739177 0.20124160851211603 0.268024894949108 0.4929427779051009 0.870519834669102 0.5058659878945282 0.25623602468755824 0.4482232362539119 0.2314981659235954 0.31345985196152426 0.08512052387545388 0.6119824250974673 0.9246140542166656 0.8716330314918278 0.7230106277778988 0.2136100720550579 0.5357660713886359 0.01919157012733763 0.37558612249199963 0.7873139109038042 0.9128316150980559 0.5968771712233445 0.3004524125975815 0.40643724693111516 0.6526465634850491 0.633329751813934 0.7788202745099863 0.928150247197113 0.677562284713817 0.8631470527822975 0.764195424848356 0.9312396558309375 0.6217877739198278 0.8590241380059132 0.3419273517530873 0.31740844824931636 0.8283034655909919 0.04427596584801252 0.20211380300078796 0.1225955337202197 0.44438474111305726 0.8691407784714235 0.6366667168978497 0.4938065701611626 0.5641641106491162 0.30012626466572057 0.4642161616927255 0.5718229449349144 0.7841683735177697 0.6488241212207737 0.4390253102292908 0.8637307155993117 0.02403776586250861 0.5097831835349589 0.14394277938765798 0.1343078027082225 0.07395025254145471 0.4288360959472043 0.17464519600711859 0.8707418020181834 0.8304598408794737 0.6200390347934559 0.9051695417503394 0.1329227062867412 0.31647325679044835 0.5960416397348297 0.9083781383938707 0.6925404135876462 0.826099089292418 0.014819864600988053 0.6319488569798625 0.5733277361244355 0.4389788845362894 0.401612976255707 0.15624866520554015 0.7910536551345941 0.9744791717102198 0.09566283219232452 0.0690532325780514 0.3429476412122978 0.5457805576472557 0.04692830665402481 0.739703932713835 0.27246668884246195 0.5936124734764392 0.008244689958276985 0.15398847374984825 0.423173579113975 0.28019758696259556 0.007185372103618248 0.007946298393549212 0.8735422401538935 0.599329565088482 0.6484919485091183 0.885957944513298 0.31152263649243217 0.5711669696093651 0.3811372057817506 0.46142783352938466 0.6017263428036074 0.28736074016052837 0.24294196271668045 0.699957639129553 0.814984900979523 0.7434204593330421 0.43179803905391767 0.5067337175443715 0.5487556906847059 0.7158118476663385 0.409676121341093 0.15023124149341893 0.3371989746698515 0.1780787832067524 0.28574035069551496 0.3969057059216745 0.9835743950025508 0.3992910004254806 0.8173894419220169 0.12592120679730967 0.6704761035996123 0.04733508870750203 0.404645774693709 0.05800022994748433 0.33082254303839653 0.2950647708768189 0.9625704401295797 0.6468984173209403 0.04414594471950195 0.06870516295603302 0.8668728907642954 0.7110948290001249 0.9032363401664796 0.5195532104890981 0.7469817285119025 0.8161820317679955 0.36661371172071455 0.1464578333095432 0.9964794719691085 0.7259078140026514 0.564338084706944 0.21161858397758082 0.6605753919705195 0.9688351000602592 0.20912084699107591 0.5694497009586316 0.9942180468132459 0.6725544698411051 0.19433263108274446 0.40528291776727154 0.3363368271253041 0.7929687742193169 0.13841818966627673 0.13042882869521732 0.21648022248831678 0.5816454116436224 0.08342795577077944 0.18652793804989398 0.6637458264321352 0.6682309394161491 0.45970615536156434 0.8538663739822624 0.6483513199851174 0.8250586051928944 0.09871884990155422 0.09883693124803439
ऋ 0.007002246875 0.11921876666666666 -0.39386879999999996 -0.2839311833333332 0.09508675937500001 0.13132985 -0.031723342708333345 -0.01569288229166667 0.025776902812499992 0.30455996354166665 0.18163029093749997 0.01473739791666668 -0.22251130625 -0.010131030208333329 0.013501497916666667 -0.11750515104166666 -0.05453740270833334 -0.27868593645833334 -0.0769112125 -0.039703652604166674 0.3301428291666668 0.14137380104166666 0.05773843854166668 0.5007882708333334 0.4014261666666669 0.02573420937500001 -0.1720686489583332 0.07942792916666665 0.16043866458333336 0.22911916666666668 0.3364786458333333 0.2856196004166667 -0.1563467114583333 -0.13435432062499994 0.03400963437499998 0.008505702083333335 0.003518433333333336 0.1472979927083333 -0.2593519447916666 -0.0031680354166666626 -0.08600484583333333 0.021006534374999997 -0.08059526979166666 -0.06337567499999995 -0.05761124062499997 0.007703547187499999 0.06973714708333333 -0.5289773854166666 0.28667849999999995 -0.09471690104166665 0.044077104166666665 -0.005256688812499998 0.23742092708333337 -0.006217756875000001 0.017422380208333327 -0.18120019270833332 -0.10025605104166663 0.32834470416666667 -0.014953985416666664 0.2589341520833333 0.12507365625 -0.06841173958333335 0.20011792708333323 -0.0132704234375 -0.02676099583333333 -0.08178310312499999 0.03210302812500001 0.2843666145833334 -0.10837953229166665 -0.15319786354166667 0.06375730833333335 -0.1482341416666667 0.03271503645833334 0.14380736250000006 0.1838855343749999 0.3490109645833333 -0.12066626458333339 -0.03095586145833334 0.02463967295833333 0.05699448750000003 -0.16917474124999995 0.12179311041666661 -0.021404425 0.25291485624999993 -0.05564316666666668 -0.18431655791666665 -0.09863620000000001 -0.21193558041666669 0.021515090625 0.21181150937500004 -0.12255154062500001 0.013525884166666662 0.2016511153125 -0.05703260624999997 -0.2934150833333333 0.17623352708333337 -0.0995691125 0.027394530208333333 -0.050429091666666696 -0.1869370229166667 0.19030369791666668 -0.11366513916666666 0.08438028104166671 -0.07223135625 0.07818291249999998 0.16914729895833336 0.045516680208333334 -0.11457572604166665 -0.04714030031250002 -0.2189818125 -0.12456833333333328 -0.067674971875 -0.00047307083333333514 -0.10266058604166671 0.11383769270833327 -0.014139635104166682 0.3322370010416668 -0.002880077083333328 -0.06629122291666668 0.23258624479166667 0.043940311458333346 -0.21738971354166658 -0.06279143958333334 -0.1442025822916667 -0.12746393229166664 -0.0849247880208333 0.2626904135416666 0.20049779375 0.00842050666666667 -0.1336617614583334 0.025889013958333332 0.06745049479166669 -0.045598931249999995 0.07582353371874999 0.07743214895833334 -0.081844896875 -0.30852951041666676 -0.11497337500000004 -0.005345635416666667 -0.144109625 -0.04545762083333336 0.06105116979166669 -0.1104791175 0.25968108333333323 0.17010896979166665 -0.06752958958333334 -0.05984524364583337 0.04161441458333334 -0.14114581770833334 -0.2514871729166666 -0.09955573125 -0.10832601749999997 0.036678115624999987 0.104731241875 -0.03167006866666666 0.03604277812500001 -0.14992919791666673 -0.02971472333333332 -0.14973382708333322 -0.13527831770833343 -0.13922338677083332 -0.1510286991666667 -0.06352818458333333 0.07888893385416668 -0.1567182729166667 -0.14703237291666668 -0.05844335937500001 0.01083595833333334 -0.059327626041666665 0.03524925208333333 -0.009919554166666665 0.09452570833333333 -0.19641909270833333 -0.16027863958333335 0.18815305937500004 0.15923030208333327 -0.06807700903124998 0.05116667812500003 0.08251914479166664 0.14829128833333333 -0.17635282395833338 0.10381438333333333 -0.11282085552083336 0.21117858958333333 -0.02025544895833334 0.20641979687500003 -0.1009249104166667 -0.15778794760416667 -0.16855997916666665 -0.1329437815625001 0.04476368437500001 -0.044608341562499994 0.012607738645833332 -0.05892308229166667 0.28724391770833324 0.004238535416666666 0.0983795260416667 0.15019368854166668 -0.21669335312499985 0.26179775062500005 0.14221828020833335 0.06281323854166666 0.03467008541666667 -0.053786674062500005 0.03194640416666667 -0.2878729437500001 -0.23787061458333333 0.16265933104166666 -0.13752500000000004 0.1662030128125 -0.30144950937500004 -0.028120973958333337 0.2881558864583334 -0.09484569895833335 0.09725382708333334 0.1047439002083333 0.08215104479166667 -0.10021544749999999 0.1385966527083333 -0.005421129166666661 -0.14144962291666668 0.08617827291666663 0.003214811052083331 -0.07763230624999999 0.056850676041666666 0.025474846770833337 0.07566026145833332 -0.10514619802083335 0.07148713843749996 0.18150250416666677 0.11549447708333327 -0.08283694781250002 -0.1698284752083333 0.19512744395833326 -0.02163644541666666 -0.10601090624999998 0.1915155885416666 0.031962584375 0.17327408333333338 -0.08543616030395833 -0.09892016239583339 -0.01701389416666667 0.03618635520833333 0.013544629270833339 0.09777366229166669 -0.19726333333333335 0.13603314895833332 0.06932974374999999 -0.10656999791666666 0.12550781052083332 -0.0024773255208333333 0.11978260624999999 -0.08636827708333332 0.001420936458333337 -0.07080003645833328 -0.006430925000000005 -0.006526574989583332 0.0007447020833333311 -0.011656439479166664 0.14784382708333335 0.2958254166666667 -0.22563418229166674 0.12123682395833335 0.03925173229166667 0.10062612187499999 0.15704537708333333 0.16089724520833334 0.005396567708333337 -0.0404767 -0.27972257812499995 0.018079487812500006 -0.05566359958333333 0.2752838685416668 -0.008561413541666667 -0.2242930166666666 -0.036622613229166656 0.03197378479166666 0.307788278125 -0.04821179062500003 -0.08780319562499994 0.2862885208333334 0.06307075625 -0.10985817812500002 0.11664998541666664 0.04088325395833332 0.10005004312499997 -0.1023806345833333 -0.002882828229166662 0.14688528260416667 0.0019705891770833294 -0.12992301562499997 0.035280858041666655 0.11220071364583332 -0.10446321520833335 -0.06619165142708336 0.006844489583333334 0.13375127114583338 -0.01084100520833333 0.043134065625 -0.05998231875000001
ब -0.11566505271210097 0.10202011807260805 -0.3356418582808699 -0.18182544909837972 0.07903679166191081 0.18560193785926596 0.10671561434369121 -0.07121226323731976 0.05008370697273465 0.18987361470439887 0.10581179991761384 0.08345231954851726 -0.12482285903503418 -0.06705777729476366 -0.05620593216362879 -0.04099370220265944 -0.09985580929969358 -0.04498292940959886 0.06243035364726943 0.05947125332262634 0.23549614976551878 0.16903636768065972 0.12300524189258981 0.3519786274109234 0.2661854707858375 0.05422588644634299 -0.02146206960663347 0.0027088538379771614 0.18909117771412706 0.16658166263531696 0.01632871973780536 0.23086435942287398 -0.08917360219757998 0.02937683431194433 0.033003751049824524 0.028745230498468645 0.0014100668173750795 0.1240234368938824 -0.09440301449637811 -0.08467375901478998 -0.047929218662583116 -0.03053558580936732 -0.02155314722379914 -0.08819541465234962 -0.025460988756330846 -0.02681582550302529 0.017803158311048072 -0.12358604188100343 0.14930084647942066 -0.046803707748038895 0.06802531832187943 0.1093895753186672 0.1389283482247696 0.04724974773750655 -0.03834054105687604 -0.10360295239806501 -0.1495602195643234 0.14401011236406935 -0.03429404233607228 0.27995451522088727 0.1300929970354821 -0.01136443650892653 0.031310342134010745 -0.08972740793673009 0.04499291070217358 -0.08717585010203925 -0.0973333990088514 0.14033834857077787 -0.004630913527310077 -0.06850768298618101 -0.024681499304100848 -0.09528134638350642 0.029956417945917822 0.054652314883693175 0.1837794690312983 0.317955650245013 0.010104818936729692 -0.06454668220019429 0.12159293371203461 -0.02468403783207582 -0.1362303621718837 0.09912225263882853 0.05418429243265854 0.08508543768394732 -0.040707217550271874 -0.06576225955598734 -0.21050221308530656 -0.14383248659864056 0.032930638213341384 0.03637833549310886 -0.03609501670291456 -0.037764644519167855 0.17564706521797346 -0.037781846753641685 -0.22536618808191702 0.07142959596593652 -0.12164896790005268 0.07429790932718279 0.14779191015537474 -0.15731141937467702 0.044313594675505906 -0.10948876293528033 0.22858677423044763 -0.06240751348060763 0.14228739548046643 0.15282839096859402 0.05672825208576687 0.04044212013045476 -0.011121693290057615 -0.03514127220228576 0.0785244067364608 0.06503741793717768 0.02665147618395447 -0.07867375770909125 0.1170881838740122 -0.14824152462381357 0.21627026819862727 -0.07195560455053439 -0.04734016608660621 0.08671533408575503 0.013865462795772068 -0.1750733042584596 0.016315526488563565 -0.029416796815716576 0.020268765738261054 -0.16639890361141396 0.17929719310519188 0.1932598985722571 0.02176434915567339 -0.1555530163120938 0.12918222191241518 0.019742798784492446 -0.013468151269291084 -0.005842318030165101 0.13913479486710978 -0.022692115486068514 -0.2655992613176214 -0.1351944893041011 -0.2250987035766046 0.10073367850063455 0.07474877304459569 0.028532313688653162 -0.04505173007452002 0.18336128666325607 0.10164815349368811 -0.017020374008590376 0.061327117776930486 0.05364808254007589 -0.09220976449889463 -0.07777000064868873 -0.15400893961522338 -0.1195643461012182 0.09317167533538491 0.11504068855008495 0.007859713401060722 0.003099453979943229 -0.010380833928662219 0.01043990104716516 -0.04883469493553432 -0.13343799577440874 0.07595831686031206 -0.16582394976208253 -0.01995232883164264 0.17199755165518116 -0.10850655460436218 -0.013047701702664505 -0.06652180709576443 -0.0014101606294165583 0.021885312101516372 0.0689566377208484 -0.10950479323758865 0.16458592878277414 0.10319565484287054 0.10486760691110739 -0.05195509756897722 0.04023514979211209 -0.04559256982999415 -0.03413257762956598 -0.013564513750056005 0.09482632481444643 -0.12950217857909915 0.1262592531878846 -0.04997163286803604 0.11923981574370601 0.043790689703264545 0.13027003059094702 0.0797112203134905 -0.10258640418368536 -0.17546289092845305 -0.05539021945671118 0.05911571134055446 -0.08988786776587739 0.04275266485358173 -0.12212861238231067 0.1739157979957418 -0.06564308229252247 0.07434918068432092 0.005501818797340704 -0.07709855555098216 0.14268303833636384 0.18071477797400534 0.16333635661828574 0.09341319508276713 -0.034724481059751844 -0.13382417153881365 -0.19747511137130838 -0.14329453025330582 0.07846304632946152 -0.21049907952349184 0.020041126220821607 -0.23146271767401283 0.22329994789781155 0.19664124807671665 -0.07032950255613638 0.07870822158155079 -0.03107391558444736 0.1105644943171734 -0.08309686445415701 0.18000262697736627 -0.05616638345845994 -0.05307975920146447 0.1277035263506384 -0.11065445975606243 -0.01614299909232842 0.0714544684782846 -0.1441511966620071 -0.008867604673563902 -0.04890483807443756 0.20603751278907917 0.0918149483899309 0.12294298521071872 0.005748140967655173 -0.004392122001867468 0.0911054120535964 -0.09400982026585464 0.024105206614700794 0.197630163853439 0.061484745863972984 0.017936068259879045 0.05938140358571769 -0.07076417116956757 -0.04026086370785068 -0.03185108657974161 -0.0906286823967279 0.06270376987829193 -0.276570568922537 0.0671258642988447 0.06717769303047716 0.08190520012385095 0.07297368182707113 -0.0907199343011129 -0.11144099457309282 -0.011391360934145058 -0.041990489600313784 -0.005354313029715392 0.11197244050855346 -0.05487859338163886 0.03289534769911122 0.046666234676245616 0.15016896056792464 0.23073258421483453 -0.16204490575969197 0.08449062412347086 0.05329926270921045 0.18152472214648543 0.316440245277506 0.07977580217104668 0.015511314452752653 0.0580284528207216 -0.372816781236274 0.039616039703892034 0.06174887336841713 0.24019984658421617 -0.06016423283155285 -0.1024068839362811 0.06811081414283254 0.21596711471815966 0.1032365669264959 -0.010772207844647792 -0.04853333420762155 -0.028020693911331825 -0.050720513608052444 0.08594005890632717 0.043898914232935106 0.02557205646298663 -0.021955874410697 0.04258414998311816 -0.0006637010308508276 0.004188186800859049 -0.05275756323321148 -0.14014993989863275 -0.11258747596451796 0.0054737972267274605 -0.05556284400089661 0.06484465390082123 0.012262144908866898 0.037026684178755355 -0.02355467737125567 -0.15139707920549744 -0.04789625033864203
च -0.06872331867512708 0.10224284322969558 -0.3215544013790189 -0.1600875491515369 0.11477467299732083 0.1789482295410318 0.06038587559912575 -0.023429550613649226 0.05869227953510996 0.21078302375394847 0.12895089537295562 0.09666008056071623 -0.12038643726078643 -0.1091102464881559 -0.057033908285956024 -0.06156377688338998 -0.07525655455160758 -0.06192382393554709 0.022033324830503364 0.019744083997743966 0.19100936291173176 0.15436486027115054 0.12336770851170313 0.4062764196982511 0.2673860530496325 0.04142229576252115 -0.06621143036675138 0.018327401823322067 0.16469901536491935 0.20657169342357673 0.14815073341931778 0.23830159268894566 -0.07126448350989839 0.01220644010786802 0.05306977476347299 0.025848163974732136 0.0230167725219967 0.10719742732162998 -0.14259193019881586 -0.08376021817780602 -0.05413724709249857 -0.020195422748166922 -0.0522627739521996 -0.10457724402791903 -0.011850664631133658 0.006968413071912 0.018713010828257257 -0.23537386980837535 0.1780899336453753 -0.09259270690341234 0.06593679133178242 0.10177323593020346 0.19441569428229086 0.007947204031866896 -0.035304830363127544 -0.11507851336435396 -0.11504529022532489 0.14594538689114475 -0.019648473391934543 0.23175166124647473 0.09085892260239696 -0.04506159028172597 0.05485404534179369 -0.08882112692188383 0.05525025270855903 -0.07257396137577554 -0.05927828742935725 0.1998210272243378 0.014865948601804903 -0.0763169643375636 -0.023990934041173088 -0.10072541084010178 0.04610600636755497 0.10634143694825174 0.2067693249138465 0.2824197060109996 0.009920056936689193 -0.04691616687112244 0.08838860571566522 -0.018372132676959984 -0.15515783168598357 0.09489518520769864 0.016688107591934596 0.1267950821221094 -0.08056866581661025 -0.08052580431542525 -0.19555705424351402 -0.13797021411943067 0.0029384604534686983 0.10413401512901878 -0.013044361134094769 0.003897668353214888 0.2025341095819222 -0.028710902492632476 -0.2989569792117882 0.12649961110124078 -0.11921155996009597 0.0787552126944445 0.12469442255361006 -0.1733732589678506 0.08982319891751259 -0.1197077648828818 0.2005742616673719 -0.10034365998505365 0.15112788055696602 0.13364442677596244 0.042957015695995596 0.04473960136477732 -0.001006929025803719 -0.048575296820078905 0.041404571855752755 0.02396376424280878 0.016464440916666722 -0.09639851665743095 0.11366593208023079 -0.11546148600606333 0.25342393056260537 -0.07338622313296654 -0.02945018616243661 0.114272015865059 0.07870128599317538 -0.2076846594348567 0.0033366452714325796 0.003141992981246462 -0.0031036624588268572 -0.18135531215091588 0.19607145920967242 0.16961647328257307 0.03224579219232941 -0.179546669756768 0.11221490804263956 0.009999973447123476 -0.037688946612084044 0.009009655382543743 0.13340583979187778 -0.04448494022391421 -0.23572317391976907 -0.09523807700706409 -0.18916826962492986 0.03979737391849965 0.019196117079328785 -0.013154022005499132 -0.04369272838826857 0.19967455030322956 0.06536922016274682 -0.038030189589805356 0.04761660065510434 0.03895040622532435 -0.12575835320558387 -0.10497317430496327 -0.1127988820163562 -0.09507764599266762 0.12025583946644085 0.096761714007191 0.0058317572646644205 2.7048317710106005e-05 -0.034746281340665416 -0.0006096668244501046 -0.06415489392390009 -0.09904337294585489 0.025307488165806566 -0.1528047497842637 -0.008477841171037776 0.13604612707416813 -0.0992021683670331 -0.012462275088888836 -0.061137859184150996 0.03514609876593347 -0.016456355721799182 0.10107519268781705 -0.06303511901917641 0.13263461289255507 0.039426378309785556 0.01950043622701643 0.017507645438522294 0.06948879715462519 -0.051640662733502506 0.0007862038722504201 0.016601856169627765 0.05606034388888914 -0.1117269496883812 0.10350418726085742 -0.06594689572686113 0.10723729958530727 0.03304088324139873 0.16998431060391997 0.09766527243908635 -0.08016830008685846 -0.15283787145939148 -0.055187911106881 0.06443122509898486 -0.05903167307562044 0.005736967246756897 -0.11483638716864038 0.18106458192089636 -0.04263120579991552 0.09818692413183872 0.009554430350535817 -0.10365513490270697 0.2461866411665256 0.1514394585307386 0.10474938398730965 0.08301350598547633 -0.049760308147208186 -0.0829407938666247 -0.1834742356150586 -0.14695296781683637 0.04617024869754661 -0.16523959026309867 0.05397116824619304 -0.24419704684010077 0.1806827258699937 0.23911271315891086 -0.06837720237845452 0.08846048812408347 -0.023753561890862918 0.09571239697839794 -0.11547330222038964 0.18085697034616427 0.00288646980499155 -0.10735628125211534 0.0650861747829951 -0.07313808041271819 -0.03356966514734907 0.0305499430418782 -0.09930427836886631 0.0007288692986745635 -0.03886898837633965 0.21604312042137547 0.11315203661943032 0.1546504403567406 0.007901974636491805 -0.04408751142385793 0.13652922631521405 -0.07750194887887768 0.04148170534404976 0.16578449201142148 0.0669352434767346 0.07734906877904671 0.026625305983054227 -0.07549310949280912 -0.07412486605894 0.006685420701353634 -0.07680236693330514 0.06809129697536657 -0.2488239443457422 0.07252264860420214 0.09207508608338957 0.03207771496644108 0.06581624727270165 -0.035545708292442135 -0.04646115889875932 0.01921869780104351 -0.058917498503525075 -0.004955844236745624 0.07336496689509275 -0.030972428905245434 0.04897134073914272 0.04375181654307104 0.16099479477679074 0.23058155065087332 -0.15609160261742797 0.08427936820727577 0.039609645291455095 0.1524159054228713 0.2330787969782859 0.10429771407586022 0.011024118228003388 0.05782564909616456 -0.3011360079441639 0.02882132020389177 0.03273390038761986 0.25828202536844375 -0.047269212227862574 -0.16390715815651413 0.030892712068358745 0.16754592976508736 0.11910003653877652 -0.02093817755668357 -0.04810553833234626 0.047932859817963976 -0.02699909475211509 0.016589190371756872 0.029205434263395325 0.028272026582825727 -0.008298914539213165 -0.017823566293993256 -0.06436845479935134 0.015445074122391413 -0.04354817651353631 -0.11776184760157944 -0.06506056447109418 -0.004255956445713465 -0.05363985207219404 0.053365557215031195 0.03241388402876472 0.02683346410335598 0.017577965637055888 -0.12063975641175977 -0.06270906714086298
य -0.11163769395548055 0.1177152951924354 -0.31561045203208776 -0.17724794870925534 0.07444494898585108 0.1986962916692361 0.04890628586504435 -0.06241142200539617 0.04381066597855924 0.1630185082213292 0.12011274690160922 0.09945675368258249 -0.14700008930252953 -0.08146888299445898 -0.02022712241074431 -0.04703435110738613 -0.0831343890482585 -0.11629510968475064 0.014637129358806922 0.010666004337524434 0.21334659730551558 0.1947063868359432 0.087792772297519 0.39536330384495333 0.25727919919523007 0.0647447276529127 -0.06913148133905103 0.02662492479512405 0.1650888722187609 0.19166660781204603 0.08452198786586376 0.2282917855075896 -0.1175300868747672 -0.011977927560154205 0.058964907645102406 0.03599775436039518 0.023343636434025344 0.11272009467670975 -0.149385433314526 -0.07911811725786576 -0.010966573650927491 -0.0477531646097854 -0.027703447777215128 -0.1601090909045033 -0.02866041915307138 -0.0010995193281542425 -0.0025481122313466614 -0.2506752675728275 0.16486405811371702 -0.04530558229303772 0.0647455302479725 0.09172446994123744 0.18053363794878466 0.005358090203758123 0.035697412896362385 -0.09416744653269074 -0.13633779581965802 0.16865468550744428 -0.020565728376627287 0.22472294017537783 0.059406564625256626 -0.07424421813370291 0.07242769752281339 -0.08900567770768446 0.03403308210344505 -0.08146386007337977 -0.08667207293873258 0.22035593658732824 -0.005536556194892784 -0.07844274812965606 -0.0226959061276222 -0.0836135472138276 0.044201235904341364 0.08481471283050804 0.26292905051298565 0.25847061263917237 0.012297600259267627 -0.05400525485078316 0.13199559419094278 -0.030709997838752303 -0.18427340080390206 0.04172458279065325 -0.009446108932787268 0.11271153313114879 -0.048850606912637824 -0.03048867963565418 -0.19679158880250616 -0.17241826569588004 0.021142245727872863 0.11482089661768158 -0.010681152610783765 -0.0285101417144929 0.20192998147012897 -0.013972011786562275 -0.28580047688027027 0.1174282921897181 -0.1086173314538182 0.03759989625519158 0.1464544071783774 -0.12441370198856123 0.0766987434011274 -0.09161947758409031 0.1559431949808724 -0.10889576385988839 0.12120923719667547 0.1732843772863886 0.08608209310166261 0.02803635185357742 -0.011784165137518697 -0.033774435570031014 0.03943270074035168 0.04222044078607585 -0.00733533697503733 -0.10932715749958978 0.13518905490710778 -0.10837001298289536 0.2583814850445181 -0.030448392977884927 -0.005714517281763449 0.11370176581628659 0.028309146296458736 -0.19977633144876356 0.024432444178414926 -0.02760350627819781 -0.02202733881450237 -0.14147852576121392 0.2016465384926044 0.1694036196602205 0.01401019718829201 -0.10979102660515558 0.08443862388113714 0.006468408545820275 -0.02394695550586377 -0.010631798570553108 0.12546646000288145 -0.03998458541594801 -0.25367176965803845 -0.07903820738935192 -0.1596999454993017 0.0641599520884609 0.04240253980969915 0.01227944298872563 -0.021729434569289323 0.19594188004274077 0.09433247638559403 0.011548270941748968 -0.008977974388340198 0.058076724172344184 -0.1361590028223172 -0.1010645195142372 -0.16318315970464406 -0.09797286706542989 0.09715603103753281 0.09310866542199904 0.01314300251047459 0.03646923627684891 0.010504015479450741 0.015543961992040516 -0.06697543592522322 -0.11078889705001187 0.07207744030431179 -0.13937511952671727 -0.019551500711491185 0.13453016815114455 -0.10431713498569005 -0.04080432108006775 -0.04859279959199706 -0.0010330535136256398 -0.02444344722209589 0.07965328870171048 -0.07581091460303555 0.12013467215531123 0.019948996143791815 0.0233946949523497 0.01368207955402068 0.08796500560491444 -0.07021554700422569 -0.01092121271142856 0.03465534586427385 0.05238893668624428 -0.1428206952973975 0.09971012747424231 -0.06682742115620327 0.15695460086528584 0.059122128932608944 0.15002656938039033 0.0899575538991568 -0.09324626909265216 -0.1838877724482771 -0.028625893532387467 0.06315553286302124 -0.08347949587681487 0.04288552248219722 -0.09254129400265011 0.2053154178824367 -0.018778930927728203 0.1105786224741509 0.02272846018727547 -0.11972328205849198 0.21614132500790337 0.19391642846735657 0.13659736500462621 0.06035238188113689 -0.05852961004346067 -0.07039145550354144 -0.16979731575225185 -0.13946346381412178 0.07650573934334862 -0.14932642237491714 0.06800751013876155 -0.24291436761459798 0.17955099094921673 0.2363789924095403 -0.06433732452411448 0.09210060306099739 -0.028274857269862824 0.06362603765521546 -0.09510810891168416 0.1778603968781983 -0.011642980045237296 -0.09390415486026754 0.08107525389380883 -0.11240347584167204 -0.06377098170358966 0.08475334731785071 -0.07733681167077855 0.00441674408967481 -0.005513489725897379 0.2244724626695728 0.11597293611674223 0.10075407030367121 0.04890639111954681 -0.08730728983868923 0.14790622244317025 -0.08636618482597003 0.01251734319366418 0.1839398119379906 0.0020838204035075686 0.07545034990328096 0.08409060738548942 -0.0762867104895689 -0.0476812221033485 0.03009531127501801 -0.0882958502882195 0.0758100809836715 -0.26026718732165777 0.11791372649313471 0.06883733348167644 0.04428000401652623 0.05661004660728947 -0.06864302619355366 -0.05653820547574066 -0.008706482884606136 -0.04638201026701519 0.010802846175716694 0.08820847185377033 0.0030632107406408132 0.03428865371462327 0.00211283008177305 0.1430473740611895 0.21103754562317492 -0.12109322996834498 0.09148436959044555 0.046082190552464784 0.1169083001347629 0.2558773103469033 0.09507058135513402 -0.006019171008031775 0.026642104446769413 -0.3420355780005781 0.010481387752291033 0.037233100721946584 0.25081512095538744 -0.032625981344977247 -0.18130897308614904 0.02835429559421806 0.1649377979225246 0.1271830353797159 -0.019784495686740382 -0.06660916646967477 0.06946454324049672 -0.023300910737976573 0.0550393639225248 0.030189568415755378 -0.009634633239942226 -0.0033890162612286124 -0.007386683908132981 -0.05389233013007049 0.018671864241406946 -0.07312837236116607 -0.11412835549457939 -0.0972710740556089 0.04961522513298014 -0.022164860760202392 0.02536697826027454 0.01750437186971818 0.05262368110704402 0.011815270644321828 -0.15055479794945786 -0.03166652091415583
फ -0.12370335568596856 0.05490367273749578 -0.26977024274353817 -0.2780022242816379 0.026290375096089325 0.1842838338620341 0.14028362074924447 -0.12578331583165508 0.041709538160959986 0.150037035934206 0.06405022314484729 0.10291255945854344 -0.12398248964685642 -0.06293231815983542 -0.04679366164870765 -0.03226228681235319 -0.16281462317606563 -0.09695457267992642 -0.010126198915240006 0.052282478386874796 0.24720238956394758 0.19094238555891238 0.12768568498287977 0.3636602500671362 0.27116537911524086 0.06044091990889582 -0.0038448753190667893 -0.004554790425981849 0.21155202082057792 0.1259012317040953 -0.10453881339241336 0.23867242990516999 -0.09719283261631449 0.0028415894023161963 0.046506333457888585 0.08989991586706929 -0.045784374287009 0.11272488905001694 -0.10871185282192042 -0.13271726507720738 -0.029915527707787735 -0.10175888695099038 -0.002358464654582071 -0.15069909717124919 -0.0007707546493789858 -0.03629990371869758 -0.0008958590083920843 -0.08267766548170537 0.10515832631755653 0.01851020413997986 0.08947504077252391 0.1106353235266867 0.1168333230194695 0.08058783683136984 -0.020693883030211458 -0.0999991237885191 -0.1518757385958375 0.11512741637025839 0.0564091643836858 0.26158920572708927 0.09006849313115159 -0.03880055113544807 0.04283613277123195 -0.12534978206228614 0.028085849494796825 -0.06592433915575699 -0.13193264212252379 0.22596275953961026 -0.004417852205438067 -0.04607106746978842 -0.09096092455857684 -0.08460216894142336 0.05404138869641005 0.03245593893390399 0.20860980284491532 0.284254440891238 0.02223338256461897 -0.08934929074504859 0.16613725779288352 -0.015634203415743505 -0.148367447230615 0.060677016671366185 0.06460740273531373 0.03140602510238335 -0.02630649237663643 0.0011158694368915846 -0.20878725925310565 -0.2091784389647543 0.030017705670023615 0.1064889602568308 -0.04398850033949312 -0.08361690024337032 0.17515088458073194 -0.0359755719620677 -0.24512664736153106 0.02541085974907678 -0.141100333825109 0.07483605545803952 0.15267058726216803 -0.1566258733618667 0.03184974492279292 -0.0784272691205102 0.22834786455052059 -0.0448001636260491 0.13835732167875134 0.1652881238920105 0.10508656076132905 0.0529945884543471 0.046477322708962876 -0.006345216614081918 0.0534329419915241 0.05050758245703263 0.012219465729372278 -0.10256238851376344 0.07384797826116121 -0.1546796467151731 0.22955392650671422 -0.03696517554884186 -0.059903018497650444 0.02530993823078221 -0.0600474411962069 -0.13619603108660608 0.03404804539107079 -0.05516369095501845 0.01241337703843569 -0.15982295822994314 0.12361218715038604 0.1893848502379992 0.09541246084759966 -0.1077944848294729 0.12639757264736468 -0.017225182658945938 -0.016390555783316527 0.011192232853977817 0.1183438910405334 0.01260308321114475 -0.2606679653816722 -0.11898034633870455 -0.21085355411832785 0.09591413521097686 0.09263991469620703 0.07134612130916429 0.007443563384692878 0.18153429379741537 0.041533881541792564 0.03288769328180589 0.10326199256629737 0.0888243887865055 -0.12622718168143723 -0.11164948867237356 -0.14898670398825156 -0.15073166697213855 0.12462421832309481 0.1391075474100363 -0.008250535963074873 -0.010943919883685826 0.13247342703759632 0.0418904467576368 -0.059623974841725394 -0.14817342544410878 0.10873831076837935 -0.15585733178751193 -0.04841963141440071 0.16717787303877166 -0.10134966078046312 -0.004639719116817726 -0.11779241318731182 0.054114976216012196 0.036750809625881245 0.020152819730110776 -0.1821299555696538 0.16112980871315866 0.1237990696247056 0.11296035307952354 -0.0071330838309835365 -0.008124732017119841 -0.010914486876636443 -0.006245888536421625 -0.02180145451242034 0.06328670529674374 -0.11869045679775075 0.16588458149043328 -0.03344751087965759 0.13447431338754645 0.08499901797046021 0.11968893867925463 0.09423939745434717 -0.08286149063192334 -0.12557875438966132 -0.017870000968781427 0.08639774091221902 -0.08324280274572025 0.09161893808308166 -0.1316232417069486 0.1933686009331992 -0.06844696695367575 0.07318160288150398 -0.029274532583081665 -0.112290779087278 0.09144774168445806 0.22481755438670625 0.18107370782460505 0.12404009962067791 -0.07023472715409508 -0.13044781593051355 -0.1810776901913391 -0.08791046881000329 0.05006842958895602 -0.23655006380463178 -0.030342079263007755 -0.20748268517656912 0.2585142410005034 0.2451703215193013 -0.08104169346458555 0.0904042268138642 -0.05241544252519324 0.04401685015928166 -0.04212949805068814 0.15276881516448437 -0.11374968353977895 -0.034188258120485114 0.1015630300453169 -0.15166355334004678 -0.04589637962134947 0.06346618963376978 -0.14898963688301423 0.014133923813360191 -0.04974457480093997 0.2743367343436884 0.05394115748808314 0.12459140155790532 0.07177959898674068 0.019557964319402522 0.035975792673883844 -0.18982807802752574 -0.017383341212655258 0.22957057121515625 0.04212399443840206 0.01749055105730107 0.09778141795367583 -0.07049531224370606 0.05221205771735454 -0.0173485203511246 -0.09011882271466926 0.04635444333564293 -0.28273919735649633 0.11814550551107761 0.07568086791708582 0.12720517926317523 0.0532718824185969 -0.18741004790651186 -0.1299636468818394 -0.027465095651225103 -0.0454063219642498 -0.005971754053709294 0.12959222569754975 -0.03613501188385363 0.0020132099418764707 -0.0033217720389392288 0.13367363632594853 0.18340558514602237 -0.10246744596878118 0.1318398529206107 0.11527309989175878 0.1855283559926149 0.3289083950083917 0.08200628837646873 -0.010808689580228277 0.07218407276770702 -0.4116506078700917 -0.006209155473313205 0.040313490530714986 0.19940254363846968 -0.07697371154127217 -0.0034499622160120767 0.15282976378382068 0.24807218225364164 0.07112277838569979 -0.014010805298086591 -0.01460648756916753 -0.09170196347860014 -0.109228385335851 0.13581169785196343 0.026587192263846968 0.01289936609634107 -0.024425849545317194 0.08166195132700572 0.02353338515139316 -0.026290518762336325 -0.08269179971886523 -0.15469749159382337 -0.1667038635196378 0.06479745655152741 -0.020963594159113762 0.06496031748976171 0.0024019633882175206 0.02942514197985904 0.021887896082359932 -0.23084713927576458 -0.0347846082036758
